{"learner":{"attributes":{"best_iteration":"168","best_score":"0.12459179043433359","scikit_learn":"{\"_estimator_type\": \"classifier\"}"},"feature_names":["total_revenue","net_income","cash_to_assets","debt_to_assets","ocf_to_debt","volatility_6m","robust_lev_vol_interaction","robust_debt_cash_interaction","interest_rate","inflation_yoy","stock_12m_return","spy_12m_return"],"feature_types":["float","float","float","float","float","float","float","float","float","float","float","float"],"gradient_booster":{"model":{"cats":{"enc":[],"feature_segments":[],"sorted_idx":[]},"gbtree_model_param":{"num_parallel_tree":"1","num_trees":"219"},"iteration_indptr":[0,1,2,3,4,5,6,7,8,9,10,11,12,13,14,15,16,17,18,19,20,21,22,23,24,25,26,27,28,29,30,31,32,33,34,35,36,37,38,39,40,41,42,43,44,45,46,47,48,49,50,51,52,53,54,55,56,57,58,59,60,61,62,63,64,65,66,67,68,69,70,71,72,73,74,75,76,77,78,79,80,81,82,83,84,85,86,87,88,89,90,91,92,93,94,95,96,97,98,99,100,101,102,103,104,105,106,107,108,109,110,111,112,113,114,115,116,117,118,119,120,121,122,123,124,125,126,127,128,129,130,131,132,133,134,135,136,137,138,139,140,141,142,143,144,145,146,147,148,149,150,151,152,153,154,155,156,157,158,159,160,161,162,163,164,165,166,167,168,169,170,171,172,173,174,175,176,177,178,179,180,181,182,183,184,185,186,187,188,189,190,191,192,193,194,195,196,197,198,199,200,201,202,203,204,205,206,207,208,209,210,211,212,213,214,215,216,217,218,219],"tree_info":[0,0,0,0,0,0,0,0,0,0,0,0,0,0,0,0,0,0,0,0,0,0,0,0,0,0,0,0,0,0,0,0,0,0,0,0,0,0,0,0,0,0,0,0,0,0,0,0,0,0,0,0,0,0,0,0,0,0,0,0,0,0,0,0,0,0,0,0,0,0,0,0,0,0,0,0,0,0,0,0,0,0,0,0,0,0,0,0,0,0,0,0,0,0,0,0,0,0,0,0,0,0,0,0,0,0,0,0,0,0,0,0,0,0,0,0,0,0,0,0,0,0,0,0,0,0,0,0,0,0,0,0,0,0,0,0,0,0,0,0,0,0,0,0,0,0,0,0,0,0,0,0,0,0,0,0,0,0,0,0,0,0,0,0,0,0,0,0,0,0,0,0,0,0,0,0,0,0,0,0,0,0,0,0,0,0,0,0,0,0,0,0,0,0,0,0,0,0,0,0,0,0,0,0,0,0,0,0,0,0,0,0,0,0,0,0,0,0,0],"trees":[{"base_weights":[4.579465E-2,1.8623683E0,-6.921884E-1,1.8841828E0,1.1466556E0,-1.2568753E0,1.131934E0,9.8983385E-2,1.7896808E0,9.198987E-2,-7.333334E-2,-9.973422E-2,-6.099405E-1,1.5178925E0,-8.44458E-1,-5E-2,1.8070874E0,8.375796E-1,-1.4811326E0,9.5752865E-2,4.3348944E-1,-9.633028E-2,1.1466556E0,1.4349246E0,1.8820308E0,-9.3220346E-2,1.0997151E0,-9.941176E-2,-6.0819703E-1,1.5663545E0,-9.4805196E-2,-7.333334E-2,9.198987E-2,9.579862E-2,-8.3333336E-2,9.5751874E-2,6.838595E-2,3.1011775E-2,8.860323E-2,9.177012E-2,-9.846154E-2,9.309441E-2,-7.5E-2],"categories":[],"categories_nodes":[],"categories_segments":[],"categories_sizes":[],"default_left":[0,0,0,0,0,0,0,0,0,0,0,0,0,0,0,0,0,0,0,0,0,0,0,0,0,0,0,0,0,0,0,0,0,0,0,0,0,0,0,0,0,0,0],"id":0,"left_children":[1,3,5,7,9,11,13,-1,15,-1,-1,-1,17,19,21,-1,23,25,27,-1,29,-1,31,33,35,-1,37,-1,39,41,-1,-1,-1,-1,-1,-1,-1,-1,-1,-1,-1,-1,-1],"loss_changes":[1.9893405E3,4.5324707E0,1.0884175E3,1.9665527E-1,3.0293596E1,3.8363928E2,1.9196863E2,0E0,1.2427612E1,0E0,0E0,0E0,5.448168E2,8.939734E1,9.159422E1,0E0,3.3718262E0,1.1721191E2,1.1806885E2,0E0,1.5459381E2,0E0,3.0293596E1,6.392202E1,4.0264893E-1,0E0,4.68842E1,0E0,3.3770148E2,3.831859E1,0E0,0E0,0E0,0E0,0E0,0E0,0E0,0E0,0E0,0E0,0E0,0E0,0E0],"parents":[2147483647,0,0,1,1,2,2,3,3,4,4,5,5,6,6,8,8,12,12,13,13,14,14,16,16,17,17,18,18,20,20,22,22,23,23,24,24,26,26,28,28,29,29],"right_children":[2,4,6,8,10,12,14,-1,16,-1,-1,-1,18,20,22,-1,24,26,28,-1,30,-1,32,34,36,-1,38,-1,40,42,-1,-1,-1,-1,-1,-1,-1,-1,-1,-1,-1,-1,-1],"split_conditions":[0E0,4.722655E-1,1.3769552E-2,6.6E-1,1.114149E-2,3.8E-1,1.3791284E-1,9.8983385E-2,1.58E0,9.198987E-2,-7.333334E-2,-9.973422E-2,3.9E-1,6.6E-1,3.962E9,-5E-2,2.8586736E-1,1.053E8,2.27E0,9.5752865E-2,3.0951936E-2,-9.633028E-2,4.035789E-1,9.0853E7,6.486645E-2,-9.3220346E-2,5.456E9,-9.941176E-2,2.38E0,2.657995E-1,-9.4805196E-2,-7.333334E-2,9.198987E-2,9.579862E-2,-8.3333336E-2,9.5751874E-2,6.838595E-2,3.1011775E-2,8.860323E-2,9.177012E-2,-9.846154E-2,9.309441E-2,-7.5E-2],"split_indices":[10,3,10,8,2,8,10,0,8,0,0,0,8,8,1,0,3,1,8,0,10,0,3,1,2,0,1,0,8,3,0,0,0,0,0,0,0,0,0,0,0,0,0],"split_type":[0,0,0,0,0,0,0,0,0,0,0,0,0,0,0,0,0,0,0,0,0,0,0,0,0,0,0,0,0,0,0,0,0,0,0,0,0,0,0,0,0,0,0],"sum_hessian":[1.4819557E3,4.276804E2,1.0542753E3,4.1344623E2,1.4234178E1,8.052943E2,2.4898102E2,1.9573102E2,2.177152E2,1.1484178E1,2.75E0,3.7525E2,4.300443E2,2.0849684E2,4.0484177E1,1E0,2.167152E2,1.6159178E2,2.6845255E2,1.5204431E2,5.6452534E1,2.625E1,1.4234178E1,3.9702534E1,1.7701266E2,1.375E1,1.4784178E2,1.69E2,9.945253E1,3.8202534E1,1.825E1,2.75E0,1.1484178E1,3.4702534E1,5E0,1.6377849E2,1.3234178E1,8.742089E1,6.0420887E1,3.5452534E1,6.4E1,3.5202534E1,3E0],"tree_param":{"num_deleted":"0","num_feature":"12","num_nodes":"43","size_leaf_vector":"1"}},{"base_weights":[-2.4033694E-3,-1.5140853E0,1.7801546E0,8.92334E-2,-9.552119E-2,1.8385963E0,-8.695688E-2,1.8639835E0,7.8703785E-1,1.267416E0,9.514804E-2,-7.807712E-2,8.793265E-2,9.259372E-2,-8.81025E-2],"categories":[],"categories_nodes":[],"categories_segments":[],"categories_sizes":[],"default_left":[0,0,0,0,0,0,0,0,0,0,0,0,0,0,0],"id":1,"left_children":[1,3,5,-1,-1,7,-1,9,11,13,-1,-1,-1,-1,-1],"loss_changes":[3.8511318E3,1.0144956E3,1.3808374E2,0E0,0E0,1.5768311E1,0E0,1.2229248E1,4.142409E1,7.693772E1,0E0,0E0,0E0,0E0,0E0],"parents":[2147483647,0,0,1,1,2,2,5,5,7,7,8,8,9,9],"right_children":[2,4,6,-1,-1,8,-1,10,12,14,-1,-1,-1,-1,-1],"split_conditions":[2.74049E-1,-4.997108E-2,2.19112E-1,8.92334E-2,-9.552119E-2,1.3791284E-1,-8.695688E-2,3.0031595E-1,2.0826745E-1,-2.8026057E-2,9.514804E-2,-7.807712E-2,8.793265E-2,9.259372E-2,-8.81025E-2],"split_indices":[11,10,10,0,0,10,0,11,10,10,0,0,0,0,0],"split_type":[0,0,0,0,0,0,0,0,0,0,0,0,0,0,0],"sum_hessian":[1.427171E3,7.7234314E2,6.5482794E2,8.24664E1,6.898768E2,6.446012E2,1.0226745E1,6.286514E2,1.5949736E1,4.0610054E1,5.880414E2,4.48982E0,1.1459916E1,3.4368282E1,6.241773E0],"tree_param":{"num_deleted":"0","num_feature":"12","num_nodes":"15","size_leaf_vector":"1"}},{"base_weights":[-4.4483434E-2,1.476242E-1,-9.049299E-2,-9.025301E-2,3.210663E-1,9.055698E-1,-2.8897518E-1,6.4091647E-1,8.857403E-2,-9.086589E-2,1.2225314E0,1.0511191E0,-4.6584544E-1,6.4044225E-1,1.4611996E0,8.448627E-2,3.4699526E-2,-8.953825E-2,2.6965914E-2,6.782847E-2,-2.7097875E-2,7.449878E-2,-5.964755E-2],"categories":[],"categories_nodes":[],"categories_segments":[],"categories_sizes":[],"default_left":[0,0,0,0,0,0,0,0,0,0,0,0,0,0,0,0,0,0,0,0,0,0,0],"id":2,"left_children":[1,3,-1,-1,5,7,9,11,-1,-1,13,15,17,19,21,-1,-1,-1,-1,-1,-1,-1,-1],"loss_changes":[4.775651E2,4.3075885E2,0E0,0E0,4.1652518E2,1.3554477E2,1.3235575E3,2.0858989E2,0E0,0E0,3.9098938E1,7.516788E1,1.6695898E2,7.3198326E1,1.732721E1,0E0,0E0,0E0,0E0,0E0,0E0,0E0,0E0],"parents":[2147483647,0,0,1,1,4,4,5,5,6,6,7,7,10,10,11,11,12,12,13,13,14,14],"right_children":[2,4,-1,-1,6,8,10,12,-1,-1,14,16,18,20,22,-1,-1,-1,-1,-1,-1,-1,-1],"split_conditions":[2.4411962E0,1.982013E-1,-9.049299E-2,-9.025301E-2,1.5128384E0,1.49404E0,2.3413167E0,1.0553159E0,8.857403E-2,-9.086589E-2,-5.768445E-1,1E-1,1.1757452E0,1.89E8,1.4978675E0,8.448627E-2,3.4699526E-2,-8.953825E-2,2.6965914E-2,6.782847E-2,-2.7097875E-2,7.449878E-2,-5.964755E-2],"split_indices":[9,9,0,0,9,9,9,9,0,0,7,8,9,1,7,0,0,0,0,0,0,0,0],"split_type":[0,0,0,0,0,0,0,0,0,0,0,0,0,0,0,0,0,0,0,0,0,0,0],"sum_hessian":[1.4063678E3,1.2691732E3,1.371946E2,1.0276739E2,1.1664058E3,5.954237E2,5.709821E2,4.57374E2,1.3804971E2,2.838093E2,2.8717282E2,3.337321E2,1.23641884E2,8.457811E1,2.0259471E2,1.1835748E2,2.1537462E2,5.3000137E1,7.064175E1,5.2583385E1,3.1994724E1,2.0085567E2,1.7390326E0],"tree_param":{"num_deleted":"0","num_feature":"12","num_nodes":"23","size_leaf_vector":"1"}},{"base_weights":[-5.9965827E-2,1.6432283E0,-6.9175345E-1,1.6591895E0,-5.732912E-2,-1.0982786E0,8.385589E-1,8.782697E-2,1.5459168E0,-8.7737136E-2,-5.195855E-1,1.4186392E0,-1.0217886E0,8.260502E-2,1.1511635E0,7.236284E-1,-1.2748518E0,1.6097499E0,-8.400996E-2,6.4908224E-1,-8.9979716E-2,-7.901615E-2,1.5227556E0,-8.704073E-2,9.85292E-1,-8.714102E-2,-4.8197657E-1,8.391112E-2,8.906097E-1,-7.7930845E-2,8.124935E-2,8.2127064E-2,-5.357879E-2,3.3633314E-2,8.045223E-2,8.5077934E-2,-8.6389214E-2,-7.181837E-2,8.104165E-2],"categories":[],"categories_nodes":[],"categories_segments":[],"categories_sizes":[],"default_left":[0,0,0,0,0,0,0,0,0,0,0,0,0,0,0,0,0,0,0,0,0,0,0,0,0,0,0,0,0,0,0,0,0,0,0,0,0,0,0],"id":3,"left_children":[1,3,5,7,-1,9,11,-1,13,-1,15,17,19,-1,21,23,25,27,-1,29,-1,-1,31,-1,33,-1,35,-1,37,-1,-1,-1,-1,-1,-1,-1,-1,-1,-1],"loss_changes":[1.4943472E3,1.8634644E1,6.310593E2,1.4090576E0,0E0,3.0328125E2,2.3148859E2,0E0,5.694214E0,0E0,4.0185568E2,9.918735E1,6.777353E1,0E0,4.4743126E1,1.0618768E2,9.785278E1,6.086731E0,0E0,3.918993E1,0E0,0E0,1.3328438E1,0E0,2.7601822E1,0E0,2.7525323E2,0E0,2.869284E1,0E0,0E0,0E0,0E0,0E0,0E0,0E0,0E0,0E0,0E0],"parents":[2147483647,0,0,1,1,2,2,3,3,5,5,6,6,8,8,10,10,11,11,12,12,14,14,15,15,16,16,17,17,19,19,22,22,24,24,26,26,28,28],"right_children":[2,4,6,8,-1,10,12,-1,14,-1,16,18,20,-1,22,24,26,28,-1,30,-1,-1,32,-1,34,-1,36,-1,38,-1,-1,-1,-1,-1,-1,-1,-1,-1,-1],"split_conditions":[0E0,2.4411962E0,4.089098E-3,6.6E-1,-5.732912E-2,3.8E-1,6.6E-1,8.782697E-2,-3.75125E-2,-8.7737136E-2,8.683633E-1,2.19112E-1,2.9727366E-2,8.260502E-2,-1.9420013E-2,1.053E8,2.27E0,1.3791284E-1,-8.400996E-2,2.8939828E-2,-8.9979716E-2,-7.901615E-2,4.16E8,-8.704073E-2,5.8535E10,-8.714102E-2,2.38E0,8.391112E-2,4.2816845E-1,-7.7930845E-2,8.124935E-2,8.2127064E-2,-5.357879E-2,3.3633314E-2,8.045223E-2,8.5077934E-2,-8.6389214E-2,-7.181837E-2,8.104165E-2],"split_indices":[10,9,10,8,0,8,8,0,10,0,9,10,10,0,10,1,8,10,0,10,0,0,1,0,0,0,8,0,3,0,0,0,0,0,0,0,0,0,0],"split_type":[0,0,0,0,0,0,0,0,0,0,0,0,0,0,0,0,0,0,0,0,0,0,0,0,0,0,0,0,0,0,0,0,0,0,0,0,0,0,0],"sum_hessian":[1.3866686E3,3.7476465E2,1.011904E3,3.7303568E2,1.7289565E0,7.9973724E2,2.1216673E2,1.9281644E2,1.8021924E2,3.7373904E2,4.259982E2,1.6191652E2,5.025022E1,1.3950818E2,4.0711056E1,1.6100922E2,2.6498898E2,1.5296352E2,8.952995E0,1.6014215E1,3.4236008E1,4.485603E0,3.6225452E1,1.4911781E1,1.4609743E2,1.6588356E2,9.910542E1,1.3844766E2,1.4515849E1,4.7259765E0,1.12882395E1,3.497735E1,1.2481043E0,9.8704834E1,4.7392597E1,3.5870007E1,6.323542E1,3.2361856E0,1.1279664E1],"tree_param":{"num_deleted":"0","num_feature":"12","num_nodes":"39","size_leaf_vector":"1"}},{"base_weights":[6.0441885E-2,-1.41119E0,1.6212904E0,8.1731185E-2,-8.578257E-2,1.6720136E0,-8.22074E-2,8.447823E-1,1.7057713E0,8.096104E-2,-8.800808E-2,1.7309932E0,6.2204725E-1,8.7889984E-2,1.4860294E0,-7.47728E-2,7.822863E-2,-8.341722E-2,8.358407E-2],"categories":[],"categories_nodes":[],"categories_segments":[],"categories_sizes":[],"default_left":[0,0,0,0,0,0,0,0,0,0,0,0,0,0,0,0,0,0,0],"id":4,"left_children":[1,3,5,-1,-1,7,-1,9,11,-1,-1,13,15,-1,17,-1,-1,-1,-1],"loss_changes":[3.3630684E3,7.0165894E2,1.20431885E2,0E0,0E0,1.8110474E1,0E0,6.222529E1,1.7283325E1,0E0,0E0,1.694458E0,3.59451E1,0E0,4.446118E1,0E0,0E0,0E0,0E0],"parents":[2147483647,0,0,1,1,2,2,5,5,7,7,8,8,11,11,12,12,14,14],"right_children":[2,4,6,-1,-1,8,-1,10,12,-1,-1,14,16,-1,18,-1,-1,-1,-1],"split_conditions":[2.74049E-1,-7.480576E-2,2.19112E-1,8.1731185E-2,-8.578257E-2,3.0031595E-1,-8.22074E-2,-2.8026057E-2,1.3791284E-1,8.096104E-2,-8.800808E-2,3.7793756E-2,4.2816845E-1,8.7889984E-2,4.0366593E-1,-7.47728E-2,7.822863E-2,-8.341722E-2,8.358407E-2],"split_indices":[11,10,10,0,0,11,0,10,10,0,0,10,3,0,11,0,0,0,0],"split_type":[0,0,0,0,0,0,0,0,0,0,0,0,0,0,0,0,0,0,0],"sum_hessian":[1.4621207E3,7.526178E2,7.095029E2,6.799828E1,6.846195E2,6.991311E2,1.0371873E1,2.8432E1,6.706991E2,2.2208048E1,6.2239513E0,6.54861E2,1.5838033E1,5.8470135E2,7.01597E1,4.6976085E0,1.1140424E1,3.4558406E0,6.670386E1],"tree_param":{"num_deleted":"0","num_feature":"12","num_nodes":"19","size_leaf_vector":"1"}},{"base_weights":[-3.9325867E-2,-1.449224E0,1.5383502E0,1.4206307E0,-8.280757E-2,1.6199769E0,-8.1846625E-2,-5.951066E-2,7.572703E-2,9.8177606E-1,8.312494E-2,8.016144E-2,-8.527427E-2],"categories":[],"categories_nodes":[],"categories_segments":[],"categories_sizes":[],"default_left":[0,0,0,0,0,0,0,0,0,0,0,0,0],"id":5,"left_children":[1,3,5,7,-1,9,-1,-1,-1,11,-1,-1,-1],"loss_changes":[2.9910688E3,4.2403845E2,1.6713159E2,1.364373E1,0E0,1.5171143E1,0E0,0E0,0E0,7.140632E1,0E0,0E0,0E0],"parents":[2147483647,0,0,1,1,2,2,3,3,5,5,9,9],"right_children":[2,4,6,8,-1,10,-1,-1,-1,12,-1,-1,-1],"split_conditions":[2.74049E-1,-4.997108E-2,1.3791284E-1,1.8266848E-1,-8.280757E-2,3.0031595E-1,-8.1846625E-2,-5.951066E-2,7.572703E-2,-2.8026057E-2,8.312494E-2,8.016144E-2,-8.527427E-2],"split_indices":[11,10,10,11,0,11,0,0,0,10,0,0,0],"split_type":[0,0,0,0,0,0,0,0,0,0,0,0,0],"sum_hessian":[1.3426836E3,7.090864E2,6.335972E2,4.7294758E1,6.617917E2,6.181952E2,1.5402049E1,1.2367642E0,4.605799E1,4.0120834E1,5.7807434E2,3.2912846E1,7.2079864E0],"tree_param":{"num_deleted":"0","num_feature":"12","num_nodes":"13","size_leaf_vector":"1"}},{"base_weights":[-5.7138305E-2,1.4825792E0,-5.752946E-1,1.4964826E0,-4.923671E-2,-9.077436E-1,8.0516446E-1,7.888116E-2,1.3932267E0,-7.917638E-2,-3.5636538E-1,1.2019778E0,-6.921491E-1,1.4522728E0,7.56221E-1,7.8262085E-1,-1.1503977E0,1.2976849E0,-7.501819E-2,-8.046273E-2,1.1296546E0,7.827744E-2,1.2797719E0,7.308653E-2,-6.987665E-2,-8.30962E-2,9.660763E-1,-7.8780815E-2,-4.2841893E-1,1.3588924E0,-6.343426E-2,7.8349896E-2,-5.4213304E-2,7.716567E-2,-7.6050855E-2,-7.5159185E-2,5.6132656E-2,7.54459E-2,-7.79899E-2,6.987297E-2,-5.7770696E-2],"categories":[],"categories_nodes":[],"categories_segments":[],"categories_sizes":[],"default_left":[0,0,0,0,0,0,0,0,0,0,0,0,0,0,0,0,0,0,0,0,0,0,0,0,0,0,0,0,0,0,0,0,0,0,0,0,0,0,0,0,0],"id":6,"left_children":[1,3,5,7,-1,9,11,-1,13,-1,15,17,19,21,23,25,27,29,-1,-1,31,-1,33,-1,-1,-1,35,-1,37,39,-1,-1,-1,-1,-1,-1,-1,-1,-1,-1,-1],"loss_changes":[1.0354696E3,1.2684448E1,4.4635715E2,5.2801514E-1,0E0,2.911985E2,1.1311956E2,0E0,4.608734E0,0E0,3.9204092E2,4.068004E1,6.9028305E1,6.885376E-1,2.477097E1,8.154463E1,7.768323E1,2.4528107E1,0E0,0E0,1.5309864E1,0E0,4.6700157E1,0E0,0E0,0E0,6.603792E1,0E0,2.1272902E2,1.5411011E1,0E0,0E0,0E0,0E0,0E0,0E0,0E0,0E0,0E0,0E0,0E0],"parents":[2147483647,0,0,1,1,2,2,3,3,5,5,6,6,8,8,10,10,11,11,12,12,13,13,14,14,15,15,16,16,17,17,20,20,22,22,26,26,28,28,29,29],"right_children":[2,4,6,8,-1,10,12,-1,14,-1,16,18,20,22,24,26,28,30,-1,-1,32,-1,34,-1,-1,-1,36,-1,38,40,-1,-1,-1,-1,-1,-1,-1,-1,-1,-1,-1],"split_conditions":[0E0,2.4411962E0,2.748107E-2,-7.480576E-2,-4.923671E-2,3.8E-1,1.2970285E-1,7.888116E-2,4.00719E-1,-7.917638E-2,8.683633E-1,9.472725E-2,3.962E9,9.288609E-3,-2.60726E8,1.2500294E-2,2.27E0,7.1445507E-1,-7.501819E-2,-8.046273E-2,5.868E9,7.827744E-2,6.6E-1,7.308653E-2,-6.987665E-2,-8.30962E-2,1.053E8,-7.8780815E-2,2.38E0,4.402E9,-6.343426E-2,7.8349896E-2,-5.4213304E-2,7.716567E-2,-7.6050855E-2,-7.5159185E-2,5.6132656E-2,7.54459E-2,-7.79899E-2,6.987297E-2,-5.7770696E-2],"split_indices":[10,9,10,10,0,8,10,0,3,0,9,2,1,2,1,2,8,7,0,0,1,0,8,0,0,0,1,0,8,1,0,0,0,0,0,0,0,0,0,0,0],"split_type":[0,0,0,0,0,0,0,0,0,0,0,0,0,0,0,0,0,0,0,0,0,0,0,0,0,0,0,0,0,0,0,0,0,0,0,0,0,0,0,0,0],"sum_hessian":[1.2958137E3,3.2580698E2,9.700068E2,3.243726E2,1.434364E0,7.820194E2,1.8798735E2,1.7364221E2,1.507304E2,3.505293E2,4.3149014E2,1.4876053E2,3.922681E1,1.3677267E2,1.3957712E1,1.772505E2,2.5423962E2,1.4417421E2,4.5863338E0,2.6169577E1,1.3057233E1,7.768421E1,5.908847E1,1.0755742E1,3.2019696E0,1.181092E1,1.6543959E2,1.5925941E2,9.4980225E1,1.4127531E2,2.898892E0,1.1147363E1,1.9098699E0,5.4417046E1,4.6714234E0,9.352219E0,1.5608737E2,3.489443E1,6.0085793E1,1.395785E2,1.696803E0],"tree_param":{"num_deleted":"0","num_feature":"12","num_nodes":"41","size_leaf_vector":"1"}},{"base_weights":[-1.9693946E-2,1.4424232E0,-5.554256E-1,1.4548911E0,-4.808711E-2,-1.0285642E0,8.965819E-1,7.589555E-2,1.3128349E0,-3.449659E-1,-1.390707E0,1.2122139E0,-6.8300545E-1,6.926585E-2,-6.312045E-2,-7.656349E-2,4.9999E-1,-7.6840065E-2,-6.671673E-1,7.516973E-2,5.98265E-1,-7.799422E-2,8.8077813E-1,1.0106266E0,-8.360305E-1,7.002981E-2,-7.577013E-2,1.2760555E0,-7.950439E-2,-6.0671337E-2,7.580959E-2,-6.85847E-2,5.615748E-2,-8.655807E-2,4.630983E-2,-6.7359395E-2,7.81927E-2],"categories":[],"categories_nodes":[],"categories_segments":[],"categories_sizes":[],"default_left":[0,0,0,0,0,0,0,0,0,0,0,0,0,0,0,0,0,0,0,0,0,0,0,0,0,0,0,0,0,0,0,0,0,0,0,0,0],"id":7,"left_children":[1,3,5,7,-1,9,11,-1,13,15,17,19,21,-1,-1,-1,23,-1,25,-1,27,-1,29,31,33,-1,-1,35,-1,-1,-1,-1,-1,-1,-1,-1,-1],"loss_changes":[1.0290278E3,1.195874E1,6.614066E2,1.1482544E0,0E0,1.791466E2,1.1889685E2,0E0,2.3255875E1,2.5396773E2,4.907715E1,3.444995E1,5.633248E1,0E0,0E0,0E0,1.0200436E2,0E0,1.4488388E2,0E0,9.88448E1,0E0,2.1851643E1,3.0419395E1,6.714451E1,0E0,0E0,4.0150955E1,0E0,0E0,0E0,0E0,0E0,0E0,0E0,0E0,0E0],"parents":[2147483647,0,0,1,1,2,2,3,3,5,5,6,6,8,8,9,9,10,10,11,11,12,12,16,16,18,18,20,20,22,22,23,23,24,24,27,27],"right_children":[2,4,6,8,-1,10,12,-1,14,16,18,20,22,-1,-1,-1,24,-1,26,-1,28,-1,30,32,34,-1,-1,36,-1,-1,-1,-1,-1,-1,-1,-1,-1],"split_conditions":[0E0,2.4411962E0,4.089098E-3,-4.997108E-2,-4.808711E-2,8.683633E-1,1.3791284E-1,7.589555E-2,1.0207E10,3.4E-1,2.27E0,6.6E-1,4.3761945E-1,6.926585E-2,-6.312045E-2,-7.656349E-2,2.0800589E-1,-7.6840065E-2,2.38E0,7.516973E-2,3.323999E-2,-7.799422E-2,1.0884E10,8.3763E8,6.15059E-1,7.002981E-2,-7.577013E-2,2.8403256E-2,-7.950439E-2,-6.0671337E-2,7.580959E-2,-6.85847E-2,5.615748E-2,-8.655807E-2,4.630983E-2,-6.7359395E-2,7.81927E-2],"split_indices":[10,9,10,10,0,9,10,0,0,8,8,8,3,0,0,0,3,0,8,0,10,0,0,0,3,0,0,10,0,0,0,0,0,0,0,0,0],"split_type":[0,0,0,0,0,0,0,0,0,0,0,0,0,0,0,0,0,0,0,0,0,0,0,0,0,0,0,0,0,0,0,0,0,0,0,0,0],"sum_hessian":[1.3116816E3,3.5127914E2,9.6040247E2,3.4985965E2,1.4195027E0,7.2458655E2,2.358159E2,2.3563875E2,1.142209E2,2.5160231E2,4.7298422E2,1.967367E2,3.907921E1,1.1154349E2,2.67741E0,1.04322716E2,1.4727959E2,3.9259E2,8.039424E1,1.3246375E2,6.427296E1,2.5040464E1,1.4038744E1,1.06730125E2,4.0549465E1,2.3196468E1,5.7197773E1,4.939188E1,1.4881078E1,3.0562503E0,1.0982493E1,4.309059E0,1.0242107E2,2.6902071E1,1.3647393E1,4.5191813E0,4.48727E1],"tree_param":{"num_deleted":"0","num_feature":"12","num_nodes":"37","size_leaf_vector":"1"}},{"base_weights":[5.5686712E-2,-1.2522986E0,1.4473417E0,-7.604523E-2,-4.6172422E-1,6.309878E-1,1.4827855E0,2.875988E-1,-7.436908E-2,-7.244014E-2,1.0414821E0,-4.601388E-2,1.4896526E0,9.296855E-1,-7.892128E-1,6.163345E-2,-5.833431E-2,1.3409276E0,1.5377619E0,-6.964278E-2,1.096887E0,-8.040067E-2,4.2135897E-1,-5.802796E-2,1.385348E0,7.927295E-2,1.4312129E0,-4.346219E-2,5.748858E-2,6.928725E-2,-7.014743E-2,4.026942E-2,7.1594715E-2,7.304028E-2,-4.995522E-2],"categories":[],"categories_nodes":[],"categories_segments":[],"categories_sizes":[],"default_left":[0,0,0,0,0,0,0,0,0,0,0,0,0,0,0,0,0,0,0,0,0,0,0,0,0,0,0,0,0,0,0,0,0,0,0],"id":8,"left_children":[1,3,5,-1,7,9,11,13,-1,-1,15,-1,17,19,21,-1,-1,23,25,-1,27,-1,29,-1,31,-1,33,-1,-1,-1,-1,-1,-1,-1,-1],"loss_changes":[2.446102E3,1.4640662E2,1.7902588E1,0E0,1.3655104E2,2.6123924E1,1.1655884E1,7.207559E1,0E0,0E0,1.1849392E1,0E0,2.387085E0,2.6807869E1,3.9418922E1,0E0,0E0,1.9364227E1,8.4106445E-2,0E0,7.3719025E0,0E0,3.1082338E1,0E0,3.0975647E0,0E0,1.24964905E1,0E0,0E0,0E0,0E0,0E0,0E0,0E0,0E0],"parents":[2147483647,0,0,1,1,2,2,4,4,5,5,6,6,7,7,10,10,12,12,13,13,14,14,17,17,18,18,20,20,22,22,24,24,26,26],"right_children":[2,4,6,-1,8,10,12,14,-1,-1,16,-1,18,20,22,-1,-1,24,26,-1,28,-1,30,-1,32,-1,34,-1,-1,-1,-1,-1,-1,-1,-1],"split_conditions":[2.74049E-1,1.58E0,3.0031595E-1,-7.604523E-2,1.69E0,8.683633E-1,-3.82E8,2.487E8,-7.436908E-2,-7.244014E-2,3.5526E8,-4.601388E-2,1.1E-1,1.8266848E-1,3.287177E-1,6.163345E-2,-5.833431E-2,3.1267726E-1,2.0151253E0,-6.964278E-2,-1.2E8,-8.040067E-2,5.813348E-1,-5.802796E-2,3.343915E-1,7.927295E-2,9.472725E-2,-4.346219E-2,5.748858E-2,6.928725E-2,-7.014743E-2,4.026942E-2,7.1594715E-2,7.304028E-2,-4.995522E-2],"split_indices":[11,8,11,0,8,9,1,1,0,0,1,0,8,11,7,0,0,11,9,0,1,0,7,0,11,0,2,0,0,0,0,0,0,0,0],"split_type":[0,0,0,0,0,0,0,0,0,0,0,0,0,0,0,0,0,0,0,0,0,0,0,0,0,0,0,0,0,0,0,0,0,0,0],"sum_hessian":[1.3418212E3,6.917557E2,6.500655E2,5.1563837E2,1.7611731E2,2.7831926E1,6.222336E2,1.021837E2,7.39336E1,4.1708226E0,2.3661104E1,1.3940755E0,6.208395E2,6.409904E1,3.8084663E1,2.2182291E1,1.4788121E0,1.5879945E2,4.6204004E2,3.8123622E0,6.0286674E1,2.2522621E1,1.5562044E1,2.3322883E0,1.5646716E2,3.0957712E2,1.5246292E2,1.1747708E0,5.9111904E1,1.0337643E1,5.224401E0,1.2984577E1,1.4348259E2,1.5102292E2,1.4399981E0],"tree_param":{"num_deleted":"0","num_feature":"12","num_nodes":"35","size_leaf_vector":"1"}},{"base_weights":[5.3246118E-2,-1.2178823E0,1.4092402E0,7.114037E-2,-7.4550144E-2,1.4544867E0,-7.196099E-2,7.047489E-1,1.488115E0,7.391543E-2,-8.0747955E-2,1.5120543E0,5.4842734E-1,7.700224E-2,1.3370515E0,-6.642217E-2,7.1271494E-2,-8.4998004E-2,7.4557975E-2],"categories":[],"categories_nodes":[],"categories_segments":[],"categories_sizes":[],"default_left":[0,0,0,0,0,0,0,0,0,0,0,0,0,0,0,0,0,0,0],"id":9,"left_children":[1,3,5,-1,-1,7,-1,9,11,-1,-1,13,15,-1,17,-1,-1,-1,-1],"loss_changes":[2.2394556E3,4.8580243E2,8.311218E1,0E0,0E0,1.4565063E1,0E0,5.350107E1,1.2483887E1,0E0,0E0,7.648926E-1,2.8676632E1,0E0,4.3293E1,0E0,0E0,0E0,0E0],"parents":[2147483647,0,0,1,1,2,2,5,5,7,7,8,8,11,11,12,12,14,14],"right_children":[2,4,6,-1,-1,8,-1,10,12,-1,-1,14,16,-1,18,-1,-1,-1,-1],"split_conditions":[2.74049E-1,-7.480576E-2,2.19112E-1,7.114037E-2,-7.4550144E-2,3.0031595E-1,-7.196099E-2,-2.8026057E-2,1.3791284E-1,7.391543E-2,-8.0747955E-2,3.7793756E-2,2.316E9,7.700224E-2,3.534892E-1,-6.642217E-2,7.1271494E-2,-8.4998004E-2,7.4557975E-2],"split_indices":[11,10,10,0,0,11,0,10,10,0,0,10,1,0,11,0,0,0,0],"split_type":[0,0,0,0,0,0,0,0,0,0,0,0,0,0,0,0,0,0,0],"sum_hessian":[1.2972616E3,6.6963654E2,6.2762506E2,6.2372566E1,6.07264E2,6.1829315E2,9.331913E0,2.7484583E1,5.908086E2,2.088329E1,6.601292E0,5.755372E2,1.5271383E1,4.8945236E2,8.608484E1,4.6994176E0,1.0571966E1,3.6728492E0,8.2411995E1],"tree_param":{"num_deleted":"0","num_feature":"12","num_nodes":"19","size_leaf_vector":"1"}},{"base_weights":[1.5705127E-2,-1.2229037E0,1.370343E0,1.2999184E0,-7.268285E-2,1.4173878E0,-7.002007E-2,-5.776855E-2,6.889092E-2,1.4711747E0,1.0028628E0,1.0766296E0,7.487062E-2,-8.2667835E-2,7.082938E-2,7.244595E-2,-7.058818E-2],"categories":[],"categories_nodes":[],"categories_segments":[],"categories_sizes":[],"default_left":[0,0,0,0,0,0,0,0,0,0,0,0,0,0,0,0,0],"id":10,"left_children":[1,3,5,7,-1,9,-1,-1,-1,11,13,15,-1,-1,-1,-1,-1],"loss_changes":[2.0757156E3,3.780985E2,7.900549E1,1.2051086E1,0E0,1.1489868E1,0E0,0E0,0E0,3.6940918E0,7.919036E1,3.4951584E1,0E0,0E0,0E0,0E0,0E0],"parents":[2147483647,0,0,1,1,2,2,3,3,5,5,9,9,10,10,11,11],"right_children":[2,4,6,8,-1,10,-1,-1,-1,12,14,16,-1,-1,-1,-1,-1],"split_conditions":[2.74049E-1,-4.997108E-2,2.19112E-1,1.8266848E-1,-7.268285E-2,3.7793756E-2,-7.002007E-2,-5.776855E-2,6.889092E-2,2.9180714E-1,4.0366593E-1,-2.8026057E-2,7.487062E-2,-8.2667835E-2,7.082938E-2,7.244595E-2,-7.058818E-2],"split_indices":[11,10,10,11,0,10,0,0,0,11,11,10,0,0,0,0,0],"split_type":[0,0,0,0,0,0,0,0,0,0,0,0,0,0,0,0,0],"sum_hessian":[1.2351176E3,6.4524084E2,5.898767E2,5.368377E1,5.9155707E2,5.805086E2,9.368113E0,1.2255263E0,5.2458244E1,5.1157938E2,6.89292E1,3.4520264E1,4.770591E2,8.8855295E0,6.004367E1,3.039116E1,4.129102E0],"tree_param":{"num_deleted":"0","num_feature":"12","num_nodes":"17","size_leaf_vector":"1"}},{"base_weights":[8.838147E-3,1.2866994E0,-3.5573092E-1,1.3006659E0,-4.286788E-2,-7.401627E-1,8.433174E-1,7.0770204E-2,1.184588E0,1.1841136E-2,-1.1994818E0,1.101961E0,-5.9540904E-1,-5.594352E-2,1.2207375E0,-6.94429E-2,7.330466E-1,-2.5255182E-1,-1.2576343E0,6.857787E-2,3.394974E-1,-7.152836E-2,8.4444547E-1,6.8325914E-2,8.036483E-1,-6.7687385E-2,8.93929E-1,-6.535097E-2,1.0758041E0,-6.987332E-2,-9.139841E-1,1.1133128E0,-7.0630476E-2,-5.2727062E-2,6.761469E-2,6.870185E-2,-7.6015316E-2,-7.1027346E-2,5.0641485E-2,-3.8471375E-2,6.743811E-2,2.4958808E-2,-6.9360405E-2,7.058003E-2,-6.1303973E-2],"categories":[],"categories_nodes":[],"categories_segments":[],"categories_sizes":[],"default_left":[0,0,0,0,0,0,0,0,0,0,0,0,0,0,0,0,0,0,0,0,0,0,0,0,0,0,0,0,0,0,0,0,0,0,0,0,0,0,0,0,0,0,0,0,0],"id":11,"left_children":[1,3,5,7,-1,9,11,-1,13,15,17,19,21,-1,23,-1,25,27,29,-1,31,-1,33,-1,35,-1,37,-1,39,-1,41,43,-1,-1,-1,-1,-1,-1,-1,-1,-1,-1,-1,-1,-1],"loss_changes":[5.5699835E2,9.062103E0,4.294213E2,1.840332E0,0E0,2.4350519E2,8.486937E1,0E0,1.2806961E1,2.7204514E2,2.3781677E1,3.9037216E1,4.3456722E1,0E0,7.1561737E0,0E0,6.088867E1,3.8626373E1,1.8524048E1,0E0,7.143617E1,0E0,1.4470943E1,0E0,5.191352E1,0E0,4.7020905E1,0E0,7.2367506E0,0E0,8.232457E1,2.706297E1,0E0,0E0,0E0,0E0,0E0,0E0,0E0,0E0,0E0,0E0,0E0,0E0,0E0],"parents":[2147483647,0,0,1,1,2,2,3,3,5,5,6,6,8,8,9,9,10,10,11,11,12,12,14,14,16,16,17,17,18,18,20,20,22,22,24,24,26,26,28,28,30,30,31,31],"right_children":[2,4,6,8,-1,10,12,-1,14,16,18,20,22,-1,24,-1,26,28,30,-1,32,-1,34,-1,36,-1,38,-1,40,-1,42,44,-1,-1,-1,-1,-1,-1,-1,-1,-1,-1,-1,-1,-1],"split_conditions":[0E0,2.4411962E0,4.089098E-3,1.5128384E0,-4.286788E-2,8.683633E-1,1.3791284E-1,7.0770204E-2,5.5955835E-2,7.1665627E-1,-3.42117E8,1.5128384E0,4.3145743E-1,-5.594352E-2,1.114149E-2,-6.94429E-2,1.053E8,1.9709179E-1,3.2976657E-1,6.857787E-2,1.390513E9,-7.152836E-2,1.0884E10,6.8325914E-2,-9.228363E-2,-6.7687385E-2,1.2500294E-2,-6.535097E-2,-3.82E8,-6.987332E-2,3.4939075E-1,3.323999E-2,-7.0630476E-2,-5.2727062E-2,6.761469E-2,6.870185E-2,-7.6015316E-2,-7.1027346E-2,5.0641485E-2,-3.8471375E-2,6.743811E-2,2.4958808E-2,-6.9360405E-2,7.058003E-2,-6.1303973E-2],"split_indices":[10,9,10,9,0,9,10,0,3,9,1,9,3,0,2,0,1,2,3,0,0,0,0,0,10,0,2,0,1,0,3,10,0,0,0,0,0,0,0,0,0,0,0,0,0],"split_type":[0,0,0,0,0,0,0,0,0,0,0,0,0,0,0,0,0,0,0,0,0,0,0,0,0,0,0,0,0,0,0,0,0,0,0,0,0,0,0,0,0,0,0,0,0],"sum_hessian":[1.1936296E3,2.6438766E2,9.29242E2,2.630674E2,1.3202676E0,7.039337E2,2.2530832E2,1.2666786E2,1.3639955E2,2.6729266E2,4.3664105E2,1.9117445E2,3.413386E1,1.6447434E0,1.347548E2,9.053436E1,1.767583E2,2.557247E1,4.1106857E2,1.4064539E2,5.0529068E1,2.160739E1,1.2526473E1,9.816717E1,3.658764E1,1.2121153E1,1.6463715E2,1.4264875E1,1.1307595E1,2.9000024E2,1.2106832E2,3.53024E1,1.5226668E1,2.4159758E0,1.0110497E1,2.9705507E1,6.882133E0,7.5096526E0,1.5712749E2,1.2227561E0,1.0084839E1,3.0357798E1,9.0710526E1,3.1661898E1,3.6405017E0],"tree_param":{"num_deleted":"0","num_feature":"12","num_nodes":"45","size_leaf_vector":"1"}},{"base_weights":[4.825715E-2,1.2869155E0,-4.2035234E-1,1.2973063E0,-4.024094E-2,-7.939691E-1,7.766888E-1,6.835808E-2,1.2163455E0,-6.856601E-2,-3.2177708E-1,1.0391437E0,-5.875538E-1,1.2375836E0,-4.6003763E-2,6.1101747E-1,-9.8244536E-1,6.646241E-2,2.9630435E-1,-6.977845E-2,8.679683E-1,6.622301E-2,8.87659E-1,-5.184923E-1,9.126832E-1,-6.821617E-2,-3.390414E-1,1.0416266E0,-6.9971554E-2,-4.9182937E-2,6.602215E-2,6.7213416E-2,-6.983075E-2,4.2899374E-2,-7.5850226E-2,-6.7903005E-2,5.3011853E-2,6.601791E-2,-6.751213E-2,6.885507E-2,-6.087274E-2],"categories":[],"categories_nodes":[],"categories_segments":[],"categories_sizes":[],"default_left":[0,0,0,0,0,0,0,0,0,0,0,0,0,0,0,0,0,0,0,0,0,0,0,0,0,0,0,0,0,0,0,0,0,0,0,0,0,0,0,0,0],"id":12,"left_children":[1,3,5,7,-1,9,11,-1,13,-1,15,17,19,21,-1,23,25,-1,27,-1,29,-1,31,33,35,-1,37,39,-1,-1,-1,-1,-1,-1,-1,-1,-1,-1,-1,-1,-1],"loss_changes":[7.075622E2,8.315979E0,3.9618848E2,2.2210693E-1,0E0,1.8346417E2,7.6123795E1,0E0,8.55481E0,0E0,2.3009436E2,3.780031E1,4.1981297E1,3.757248E0,0E0,5.329223E1,5.319339E1,0E0,6.599527E1,0E0,1.2183101E1,0E0,3.8701782E1,4.708678E1,4.2552383E1,0E0,1.4049887E2,2.899432E1,0E0,0E0,0E0,0E0,0E0,0E0,0E0,0E0,0E0,0E0,0E0,0E0,0E0],"parents":[2147483647,0,0,1,1,2,2,3,3,5,5,6,6,8,8,10,10,11,11,12,12,13,13,15,15,16,16,18,18,20,20,22,22,23,23,24,24,26,26,27,27],"right_children":[2,4,6,8,-1,10,12,-1,14,-1,16,18,20,22,-1,24,26,-1,28,-1,30,-1,32,34,36,-1,38,40,-1,-1,-1,-1,-1,-1,-1,-1,-1,-1,-1,-1,-1],"split_conditions":[0E0,2.4411962E0,4.089098E-3,-7.480576E-2,-4.024094E-2,3.8E-1,1.3791284E-1,6.835808E-2,2.0229919E-1,-6.856601E-2,8.683633E-1,6.6E-1,4.3761945E-1,2.5041169E-2,-4.6003763E-2,4.06325E-2,2.27E0,6.646241E-2,3.323999E-2,-6.977845E-2,8.231169E9,6.622301E-2,1.1E-1,1.1048974E-3,1.075538E9,-6.821617E-2,2.38E0,6.520033E-2,-6.9971554E-2,-4.9182937E-2,6.602215E-2,6.7213416E-2,-6.983075E-2,4.2899374E-2,-7.5850226E-2,-6.7903005E-2,5.3011853E-2,6.601791E-2,-6.751213E-2,6.885507E-2,-6.087274E-2],"split_indices":[10,9,10,10,0,8,10,0,2,0,9,8,3,2,0,2,8,0,10,0,0,0,8,3,0,0,8,3,0,0,0,0,0,0,0,0,0,0,0,0,0],"split_type":[0,0,0,0,0,0,0,0,0,0,0,0,0,0,0,0,0,0,0,0,0,0,0,0,0,0,0,0,0,0,0,0,0,0,0,0,0,0,0,0,0],"sum_hessian":[1.2170631E3,3.3357916E2,8.8348395E2,3.3230823E2,1.270955E0,6.735838E2,2.0990015E2,1.6986092E2,1.6244731E2,3.0219034E2,3.7139343E2,1.7623427E2,3.3665882E1,1.6126491E2,1.1824046E0,1.5401521E2,2.1737822E2,1.2617077E2,5.0063496E1,2.1674656E1,1.1991227E1,1.2695941E2,3.430549E1,3.23121E1,1.2170312E2,1.3571007E2,8.166815E1,3.5045692E1,1.5017805E1,2.1242733E0,9.866954E0,2.8933426E1,5.372064E0,1.3644068E1,1.8668032E1,6.925226E0,1.14777885E2,3.0807219E1,5.0860935E1,3.0854237E1,4.191454E0],"tree_param":{"num_deleted":"0","num_feature":"12","num_nodes":"41","size_leaf_vector":"1"}},{"base_weights":[4.2957105E-2,-1.2063444E0,1.3031571E0,6.762687E-2,-6.895461E-2,1.3436708E0,-6.476294E-2,6.494478E-1,1.3733051E0,6.716327E-2,-7.536064E-2,1.3906856E0,6.087336E-1,7.072185E-2,1.2518269E0,-5.734651E-2,6.454988E-2,-8.1124656E-2,6.9306955E-2],"categories":[],"categories_nodes":[],"categories_segments":[],"categories_sizes":[],"default_left":[0,0,0,0,0,0,0,0,0,0,0,0,0,0,0,0,0,0,0],"id":13,"left_children":[1,3,5,-1,-1,7,-1,9,11,-1,-1,13,15,-1,17,-1,-1,-1,-1],"loss_changes":[1.8562583E3,2.6359894E2,6.3529175E1,0E0,0E0,1.1007935E1,0E0,4.0297184E1,6.5131836E0,0E0,0E0,1.2939453E-2,1.8356815E1,0E0,3.6099747E1,0E0,0E0,0E0,0E0],"parents":[2147483647,0,0,1,1,2,2,5,5,7,7,8,8,11,11,12,12,14,14],"right_children":[2,4,6,-1,-1,8,-1,10,12,-1,-1,14,16,-1,18,-1,-1,-1,-1],"split_conditions":[2.74049E-1,-9.228363E-2,2.19112E-1,6.762687E-2,-6.895461E-2,3.0031595E-1,-6.476294E-2,-2.8026057E-2,1.3791284E-1,6.716327E-2,-7.536064E-2,3.7793756E-2,4.2816845E-1,7.072185E-2,3.534892E-1,-5.734651E-2,6.454988E-2,-8.1124656E-2,6.9306955E-2],"split_indices":[11,10,10,0,0,11,0,10,10,0,0,10,3,0,11,0,0,0,0],"split_type":[0,0,0,0,0,0,0,0,0,0,0,0,0,0,0,0,0,0,0],"sum_hessian":[1.1770499E3,5.9110236E2,5.859476E2,3.694934E1,5.54153E2,5.774274E2,8.520173E0,2.4577663E1,5.5284973E2,1.8880718E1,5.6969457E0,5.397608E2,1.3088965E1,4.530772E2,8.668356E1,3.472401E0,9.616565E0,3.3751113E0,8.330846E1],"tree_param":{"num_deleted":"0","num_feature":"12","num_nodes":"19","size_leaf_vector":"1"}},{"base_weights":[9.6266024E-2,-1.0531634E0,1.2713774E0,1.2479396E0,-6.7465924E-2,1.3138064E0,-6.416723E-2,-5.4331917E-2,1.304628E0,1.3618052E0,1.0072485E0,9.939397E-1,7.0322625E-2,9.4395554E-1,6.9388166E-2,-7.907075E-2,6.578743E-2,6.37122E-2,-6.517576E-2,6.640558E-2,-6.6538416E-2],"categories":[],"categories_nodes":[],"categories_segments":[],"categories_sizes":[],"default_left":[0,0,0,0,0,0,0,0,0,0,0,0,0,0,0,0,0,0,0,0,0],"id":14,"left_children":[1,3,5,7,-1,9,-1,-1,11,13,15,17,-1,19,-1,-1,-1,-1,-1,-1,-1],"loss_changes":[1.6154569E3,4.1374738E2,6.578613E1,1.0611053E1,0E0,7.1950073E0,0E0,0E0,7.6195526E-1,4.1190796E0,6.809037E1,1.4709543E1,0E0,3.0082739E1,0E0,0E0,0E0,0E0,0E0,0E0,0E0],"parents":[2147483647,0,0,1,1,2,2,3,3,5,5,8,8,9,9,10,10,11,11,13,13],"right_children":[2,4,6,8,-1,10,-1,-1,12,14,16,18,-1,20,-1,-1,-1,-1,-1,-1,-1],"split_conditions":[2.74049E-1,-4.997108E-2,2.19112E-1,1.8266848E-1,-6.7465924E-2,3.7793756E-2,-6.416723E-2,-5.4331917E-2,1.9185147E-1,2.9180714E-1,3.534892E-1,-9.228363E-2,7.0322625E-2,-2.8026057E-2,6.9388166E-2,-7.907075E-2,6.578743E-2,6.37122E-2,-6.517576E-2,6.640558E-2,-6.6538416E-2],"split_indices":[11,10,10,11,0,10,0,0,11,11,11,10,0,10,0,0,0,0,0,0,0],"split_type":[0,0,0,0,0,0,0,0,0,0,0,0,0,0,0,0,0,0,0,0,0],"sum_hessian":[1.1940166E3,6.036566E2,5.9036E2,6.846615E1,5.351905E2,5.8119324E2,9.166769E0,1.1923753E0,6.727377E1,4.9953683E2,8.165639E1,1.9262152E1,4.801162E1,3.1403008E1,4.6813382E2,8.25569E0,7.3400696E1,1.7564533E1,1.6976187E0,2.7221909E1,4.1811E0],"tree_param":{"num_deleted":"0","num_feature":"12","num_nodes":"21","size_leaf_vector":"1"}},{"base_weights":[2.5480771E-2,-1.0328096E0,1.2453139E0,1.2187124E0,-6.638682E-2,1.2874078E0,-6.1840445E-2,-5.295467E-2,1.2754663E0,5.3974557E-1,1.3246051E0,9.654943E-1,6.884592E-2,6.451955E-2,-7.3211394E-2,6.717476E-2,5.8069736E-1,6.259112E-2,-6.5480046E-2,-5.4587673E-2,6.186041E-2],"categories":[],"categories_nodes":[],"categories_segments":[],"categories_sizes":[],"default_left":[0,0,0,0,0,0,0,0,0,0,0,0,0,0,0,0,0,0,0,0,0],"id":15,"left_children":[1,3,5,7,-1,9,-1,-1,11,13,15,17,-1,-1,-1,-1,19,-1,-1,-1,-1],"loss_changes":[1.3951005E3,3.8587677E2,5.404425E1,1.0082367E1,0E0,1.3027588E1,0E0,0E0,7.5725555E-1,3.9656677E1,5.82489E0,1.4478203E1,0E0,0E0,0E0,0E0,1.6065065E1,0E0,0E0,0E0,0E0],"parents":[2147483647,0,0,1,1,2,2,3,3,5,5,8,8,9,9,10,10,11,11,16,16],"right_children":[2,4,6,8,-1,10,-1,-1,12,14,16,18,-1,-1,-1,-1,20,-1,-1,-1,-1],"split_conditions":[2.74049E-1,-4.997108E-2,2.19112E-1,1.8266848E-1,-6.638682E-2,3.0031595E-1,-6.1840445E-2,-5.295467E-2,1.9185147E-1,-2.8026057E-2,1.3791284E-1,-9.228363E-2,6.884592E-2,6.451955E-2,-7.3211394E-2,6.717476E-2,2.316E9,6.259112E-2,-6.5480046E-2,-5.4587673E-2,6.186041E-2],"split_indices":[11,10,10,11,0,11,0,0,11,10,10,10,0,0,0,0,1,0,0,0,0],"split_type":[0,0,0,0,0,0,0,0,0,0,0,0,0,0,0,0,0,0,0,0,0],"sum_hessian":[1.0786914E3,5.7767303E2,5.0101837E2,6.654264E1,5.111304E2,4.931367E2,7.88168E0,1.1883228E0,6.535432E1,2.4106644E1,4.6903003E2,1.8708857E1,4.6645462E1,1.779653E1,6.310113E0,4.5662878E2,1.24012575E1,1.7016985E1,1.6918712E0,3.3089066E0,9.092351E0],"tree_param":{"num_deleted":"0","num_feature":"12","num_nodes":"21","size_leaf_vector":"1"}},{"base_weights":[2.6939318E-2,1.5952642E-1,-6.3633315E-2,-6.328704E-2,2.769758E-1,3.6294758E-1,-6.301095E-2,-1.0831545E-1,5.983522E-1,4.45506E-1,-6.358326E-2,9.0512E-1,4.18905E-1,3.162643E-2,-6.131758E-2,4.926282E-2,-5.9896965E-2,4.033323E-2,-2.3310347E-3],"categories":[],"categories_nodes":[],"categories_segments":[],"categories_sizes":[],"default_left":[0,0,0,0,0,0,0,0,0,0,0,0,0,0,0,0,0,0,0],"id":16,"left_children":[1,3,-1,-1,5,7,-1,9,11,13,-1,15,17,-1,-1,-1,-1,-1,-1],"loss_changes":[1.8310574E2,1.6173627E2,0E0,0E0,1.1827567E2,9.381483E1,0E0,1.8248515E2,3.0652542E1,6.0819077E1,0E0,3.609807E1,6.457539E1,0E0,0E0,0E0,0E0,0E0,0E0],"parents":[2147483647,0,0,1,1,4,4,5,5,7,7,8,8,9,9,11,11,12,12],"right_children":[2,4,-1,-1,6,8,-1,10,12,14,-1,16,18,-1,-1,-1,-1,-1,-1],"split_conditions":[2.4411962E0,1.982013E-1,-6.3633315E-2,-6.328704E-2,2.38E0,3.8E-1,-6.301095E-2,1.3204191E0,1.3082382E-2,-6.9960153E-1,-6.358326E-2,1.1761E10,1.5128384E0,3.162643E-2,-6.131758E-2,4.926282E-2,-5.9896965E-2,4.033323E-2,-2.3310347E-3],"split_indices":[9,9,0,0,8,8,0,9,2,7,0,0,9,0,0,0,0,0,0],"split_type":[0,0,0,0,0,0,0,0,0,0,0,0,0,0,0,0,0,0,0],"sum_hessian":[1.0604691E3,9.630908E2,9.7378265E1,7.2577255E1,8.9051355E2,8.440705E2,4.644303E1,2.8135602E2,5.627145E2,1.910312E2,9.03248E1,2.0618834E2,3.5652615E2,1.723706E2,1.8660595E1,1.9913199E2,7.0563507E0,1.941097E2,1.6241646E2],"tree_param":{"num_deleted":"0","num_feature":"12","num_nodes":"19","size_leaf_vector":"1"}},{"base_weights":[3.1352896E-2,1.1838378E0,-3.9784548E-1,6.266048E-2,1.0246547E0,-6.9552743E-1,6.274596E-1,1.0806092E0,-5.076759E-2,-1.7333021E-2,-1.1438874E0,9.236535E-1,-6.240574E-1,6.2713385E-2,7.1556073E-1,-6.289607E-2,6.09866E-1,-6.3557535E-2,-5.3837186E-1,1.017546E0,-5.9344094E-2,-6.499752E-2,6.9660634E-1,5.9113782E-2,-6.060446E-2,-6.1995305E-2,7.4504864E-1,5.6396525E-2,-6.2104404E-2,1.0750176E0,-6.2077172E-2,-4.8033204E-2,5.9930768E-2,1.3088312E-3,4.897676E-2,6.309741E-2,2.9723028E-2],"categories":[],"categories_nodes":[],"categories_segments":[],"categories_sizes":[],"default_left":[0,0,0,0,0,0,0,0,0,0,0,0,0,0,0,0,0,0,0,0,0,0,0,0,0,0,0,0,0,0,0,0,0,0,0,0,0],"id":17,"left_children":[1,3,5,-1,7,9,11,13,-1,15,17,19,21,-1,23,-1,25,-1,27,29,-1,-1,31,-1,-1,-1,33,-1,-1,35,-1,-1,-1,-1,-1,-1,-1],"loss_changes":[5.1780255E2,1.8526611E0,2.3325809E2,0E0,1.1564514E1,1.7988571E2,6.439627E1,4.7912216E0,0E0,1.847766E2,2.6761444E1,2.8875214E1,3.084856E1,0E0,2.9552794E1,0E0,4.0369915E1,0E0,7.596695E1,1.8759735E1,0E0,0E0,1.1140862E1,0E0,0E0,0E0,2.485971E1,0E0,0E0,1.1055145E1,0E0,0E0,0E0,0E0,0E0,0E0,0E0],"parents":[2147483647,0,0,1,1,2,2,4,4,5,5,6,6,7,7,9,9,10,10,11,11,12,12,14,14,16,16,18,18,19,19,22,22,26,26,29,29],"right_children":[2,4,6,-1,8,10,12,14,-1,16,18,20,22,-1,24,-1,26,-1,28,30,-1,-1,32,-1,-1,-1,34,-1,-1,36,-1,-1,-1,-1,-1,-1,-1],"split_conditions":[0E0,-4.997108E-2,2.225087E-3,6.266048E-2,-1.5647638E-1,8.683633E-1,1.3791284E-1,6.237515E-3,-5.076759E-2,3.4E-1,2.27E0,-1.8526827E-1,4.3761945E-1,6.2713385E-2,6.6E-1,-6.289607E-2,1.053E8,-6.3557535E-2,2.38E0,1.9073321E-1,-5.9344094E-2,-6.499752E-2,1.358E9,5.9113782E-2,-6.060446E-2,-6.1995305E-2,4.5395322E-2,5.6396525E-2,-6.2104404E-2,6.6E-1,-6.2077172E-2,-4.8033204E-2,5.9930768E-2,1.3088312E-3,4.897676E-2,6.309741E-2,2.9723028E-2],"split_indices":[10,10,10,0,7,9,10,2,0,8,8,7,3,0,8,0,1,0,8,2,0,0,1,0,0,0,2,0,0,8,0,0,0,0,0,0,0],"split_type":[0,0,0,0,0,0,0,0,0,0,0,0,0,0,0,0,0,0,0,0,0,0,0,0,0,0,0,0,0,0,0,0,0,0,0,0,0],"sum_hessian":[1.0448652E3,2.830528E2,7.618125E2,1.9235275E2,9.0700035E1,5.9064825E2,1.7116425E2,8.873642E1,1.9636173E0,2.3548682E2,3.5516144E2,1.3861945E2,3.25448E1,5.848053E1,3.0255888E1,7.873829E1,1.5674854E2,2.9257138E2,6.259006E1,1.3321107E2,5.4083624E0,2.1537806E1,1.1006995E1,2.4669645E1,5.5862417E0,1.0118592E1,1.4662993E2,1.8405521E1,4.4184544E1,1.3041737E2,2.7937E0,2.3465955E0,8.660399E0,3.633828E1,1.1029166E2,9.2723236E1,3.769415E1],"tree_param":{"num_deleted":"0","num_feature":"12","num_nodes":"37","size_leaf_vector":"1"}},{"base_weights":[-1.143432E-2,-1.0385942E0,1.1685598E0,1.1214993E0,-6.4292304E-2,1.213118E0,-6.003362E-2,1.2186857E0,-6.1221458E-2,1.2689805E0,7.984198E-1,6.465049E-2,7.735483E-1,7.9706717E-1,6.5235026E-2,-7.799755E-2,6.1946757E-2,5.705898E-2,-5.4033607E-2,6.308405E-2,-6.7238845E-2],"categories":[],"categories_nodes":[],"categories_segments":[],"categories_sizes":[],"default_left":[0,0,0,0,0,0,0,0,0,0,0,0,0,0,0,0,0,0,0,0,0],"id":18,"left_children":[1,3,5,7,-1,9,-1,11,-1,13,15,-1,17,19,-1,-1,-1,-1,-1,-1,-1],"loss_changes":[1.2023468E3,2.846897E2,5.019342E1,1.4032661E1,0E0,9.495728E0,0E0,7.637558E-1,0E0,5.670471E0,6.0682194E1,0E0,8.130156E0,3.212949E1,0E0,0E0,0E0,0E0,0E0,0E0,0E0],"parents":[2147483647,0,0,1,1,2,2,3,3,5,5,7,7,9,9,10,10,12,12,13,13],"right_children":[2,4,6,8,-1,10,-1,12,-1,14,16,-1,18,20,-1,-1,-1,-1,-1,-1,-1],"split_conditions":[2.74049E-1,-4.997108E-2,2.19112E-1,3.074022E9,-6.4292304E-2,3.7793756E-2,-6.003362E-2,2.487E8,-6.1221458E-2,2.9180714E-1,4.0366593E-1,6.465049E-2,-9.228363E-2,-2.8026057E-2,6.5235026E-2,-7.799755E-2,6.1946757E-2,5.705898E-2,-5.4033607E-2,6.308405E-2,-6.7238845E-2],"split_indices":[11,10,10,0,0,10,0,1,0,11,11,0,10,10,0,0,0,0,0,0,0],"split_type":[0,0,0,0,0,0,0,0,0,0,0,0,0,0,0,0,0,0,0,0,0],"sum_hessian":[9.89999E2,5.293398E2,4.6065927E2,5.4003883E1,4.753359E2,4.5263452E2,8.024744E0,5.231702E1,1.6868633E0,3.9708472E2,5.5549824E1,4.3199337E1,9.117682E0,2.9581732E1,3.6750296E2,8.343002E0,4.720682E1,7.9299774E0,1.1877049E0,2.464633E1,4.9354024E0],"tree_param":{"num_deleted":"0","num_feature":"12","num_nodes":"21","size_leaf_vector":"1"}},{"base_weights":[1.0884411E-1,2.3119694E-1,-6.110374E-2,-6.074181E-2,3.3595404E-1,6.740696E-1,-4.5319088E-2,5.1230586E-1,6.004068E-2,-9.313117E-1,8.268472E-1,6.179967E-2,3.783705E-1,-6.1650313E-2,-2.770843E-1,1.0842332E0,3.5895312E-1,-6.0305446E-2,2.7475078E-2,5.6555003E-2,-6.0311336E-2,1.2159099E-2,5.8741864E-2,-2.6010474E-2,3.8802933E-2],"categories":[],"categories_nodes":[],"categories_segments":[],"categories_sizes":[],"default_left":[0,0,0,0,0,0,0,0,0,0,0,0,0,0,0,0,0,0,0,0,0,0,0,0,0],"id":19,"left_children":[1,3,-1,-1,5,7,9,11,-1,13,15,-1,17,-1,19,21,23,-1,-1,-1,-1,-1,-1,-1,-1],"loss_changes":[1.6847336E2,1.4382133E2,0E0,0E0,1.13934586E2,3.9291855E1,3.223934E2,3.4431473E1,0E0,4.05038E1,2.493399E1,0E0,8.343671E1,0E0,8.8506386E1,1.0013641E1,2.8315914E1,0E0,0E0,0E0,0E0,0E0,0E0,0E0,0E0],"parents":[2147483647,0,0,1,1,4,4,5,5,6,6,7,7,9,9,10,10,12,12,14,14,15,15,16,16],"right_children":[2,4,-1,-1,6,8,10,12,-1,14,16,-1,18,-1,20,22,24,-1,-1,-1,-1,-1,-1,-1,-1],"split_conditions":[2.4411962E0,1.982013E-1,-6.110374E-2,-6.074181E-2,1.5128384E0,1.49404E0,2.3413167E0,7E-2,6.004068E-2,2.27E0,1.1435608E-2,6.179967E-2,8E-2,-6.1650313E-2,2.38E0,2.682064E-1,-5.163966E-1,-6.0305446E-2,2.7475078E-2,5.6555003E-2,-6.0311336E-2,1.2159099E-2,5.8741864E-2,-2.6010474E-2,3.8802933E-2],"split_indices":[9,9,0,0,9,9,9,8,0,8,2,0,8,0,8,3,7,0,0,0,0,0,0,0,0],"split_type":[0,0,0,0,0,0,0,0,0,0,0,0,0,0,0,0,0,0,0,0,0,0,0,0,0],"sum_hessian":[1.0318486E3,9.457327E2,8.611596E1,6.3169186E1,8.8256354E2,4.6734814E2,4.152154E2,3.590546E2,1.0829356E2,2.059414E2,2.0927399E2,5.47887E1,3.042659E2,1.4033963E2,6.5601776E1,1.3415744E2,7.511653E1,2.9069298E1,2.751966E2,2.5991846E1,3.9609932E1,1.3405165E1,1.2075228E2,2.4091015E1,5.102552E1],"tree_param":{"num_deleted":"0","num_feature":"12","num_nodes":"25","size_leaf_vector":"1"}},{"base_weights":[6.962964E-2,1.8400265E-1,-6.0347855E-2,-5.9971463E-2,2.8249612E-1,3.548017E-1,-5.9649523E-2,-5.225605E-2,5.529724E-1,4.4654927E-1,-6.097446E-2,5.798642E-1,-5.9222665E-2,5.6584578E-2,7.259295E-4,-5.51718E-2,3.0100984E-2],"categories":[],"categories_nodes":[],"categories_segments":[],"categories_sizes":[],"default_left":[0,0,0,0,0,0,0,0,0,0,0,0,0,0,0,0,0],"id":20,"left_children":[1,3,-1,-1,5,7,-1,9,11,13,-1,15,-1,-1,-1,-1,-1],"loss_changes":[1.3975943E2,1.19970764E2,0E0,0E0,8.7951675E1,6.3180992E1,0E0,1.5032193E2,2.5292038E1,5.3549137E1,0E0,2.0029999E1,0E0,0E0,0E0,0E0,0E0],"parents":[2147483647,0,0,1,1,4,4,5,5,7,7,8,8,9,9,11,11],"right_children":[2,4,-1,-1,6,8,-1,10,12,14,-1,16,-1,-1,-1,-1,-1],"split_conditions":[2.4411962E0,1.982013E-1,-6.0347855E-2,-5.9971463E-2,2.38E0,3.8E-1,-5.9649523E-2,1.1E-1,2.9043302E-1,1.0553159E0,-6.097446E-2,-3.82E8,-5.9222665E-2,5.6584578E-2,7.259295E-4,-5.51718E-2,3.0100984E-2],"split_indices":[9,9,0,0,8,8,0,8,2,9,0,1,0,0,0,0,0],"split_type":[0,0,0,0,0,0,0,0,0,0,0,0,0,0,0,0,0],"sum_hessian":[9.546891E2,8.769743E2,7.7714745E1,5.7543602E1,8.194307E2,7.818748E2,3.75559E1,2.5625125E2,5.2562354E2,1.7996323E2,7.628804E1,5.1826807E2,7.3555036E0,6.8968704E1,1.10994514E2,6.0987597E0,5.121693E2],"tree_param":{"num_deleted":"0","num_feature":"12","num_nodes":"17","size_leaf_vector":"1"}},{"base_weights":[1.468847E-1,-9.637939E-1,1.1750385E0,1.1375906E0,-1.2564243E0,1.2055037E0,-5.82591E-2,-5.5364043E-2,1.2096236E0,-6.1498202E-2,-7.045217E-2,4.4131786E-1,1.237197E0,9.4136864E-1,6.449836E-2,6.0146548E-2,-7.1427174E-2,6.270469E-2,4.41073E-1,5.914993E-2,-6.2462486E-2,-5.4164696E-2,5.6344874E-2],"categories":[],"categories_nodes":[],"categories_segments":[],"categories_sizes":[],"default_left":[0,0,0,0,0,0,0,0,0,0,0,0,0,0,0,0,0,0,0,0,0,0,0],"id":21,"left_children":[1,3,5,7,9,11,-1,-1,13,-1,-1,15,17,19,-1,-1,-1,-1,21,-1,-1,-1,-1],"loss_changes":[1.1622758E3,3.023373E2,3.9082214E1,1.1096428E1,3.4179688E-3,1.2100769E1,0E0,0E0,5.5984497E-2,0E0,0E0,3.354489E1,6.183838E0,1.0627041E1,0E0,0E0,0E0,0E0,1.3714809E1,0E0,0E0,0E0,0E0],"parents":[2147483647,0,0,1,1,2,2,3,3,4,4,5,5,8,8,11,11,12,12,13,13,18,18],"right_children":[2,4,6,8,10,12,-1,-1,14,-1,-1,16,18,20,-1,-1,-1,-1,22,-1,-1,-1,-1],"split_conditions":[2.74049E-1,-4.997108E-2,2.19112E-1,1.8266848E-1,2.3821878E-1,2.9180714E-1,-5.82591E-2,-5.5364043E-2,1.8612817E-1,-6.1498202E-2,-7.045217E-2,-2.8026057E-2,1.3791284E-1,-9.228363E-2,6.449836E-2,6.0146548E-2,-7.1427174E-2,6.270469E-2,4.00719E-1,5.914993E-2,-6.2462486E-2,-5.4164696E-2,5.6344874E-2],"split_indices":[11,10,10,11,11,11,0,0,11,0,0,10,10,10,0,0,0,0,3,0,0,0,0],"split_type":[0,0,0,0,0,0,0,0,0,0,0,0,0,0,0,0,0,0,0,0,0,0,0],"sum_hessian":[1.01580884E3,4.8833752E2,5.274713E2,5.9338596E1,4.289989E2,5.211715E2,6.2997975E0,1.398023E0,5.7940575E1,3.7333148E2,5.5667423E1,2.1348295E1,4.9982324E2,1.6284819E1,4.1655754E1,1.5423019E1,5.925276E0,4.8887234E2,1.0950901E1,1.5081291E1,1.203528E0,3.2182403E0,7.732661E0],"tree_param":{"num_deleted":"0","num_feature":"12","num_nodes":"23","size_leaf_vector":"1"}},{"base_weights":[1.0303015E-2,1.0996629E0,-3.9147303E-1,1.1111534E0,-3.436173E-2,-6.425273E-1,4.951336E-1,6.0243655E-2,1.0203537E0,-6.0024586E-2,-2.3290017E-1,7.8493357E-1,-6.249593E-2,1.1343912E0,4.467235E-1,4.7489154E-1,-8.4911346E-1,1.0642354E0,3.5652018E-1,5.8207374E-2,7.0708275E-1,5.0876785E-2,-6.1764907E-2,-5.922832E-2,6.075682E-1,-6.025588E-2,-2.503463E-1,5.7397284E-2,4.689499E-1,9.572464E-1,-6.384256E-2,-4.1101728E-2,5.394259E-2,9.418786E-3,4.5842275E-2,5.261856E-2,-5.8266796E-2,5.6213927E-2,-7.296472E-2,-5.131607E-2,5.9443094E-2],"categories":[],"categories_nodes":[],"categories_segments":[],"categories_sizes":[],"default_left":[0,0,0,0,0,0,0,0,0,0,0,0,0,0,0,0,0,0,0,0,0,0,0,0,0,0,0,0,0,0,0,0,0,0,0,0,0,0,0,0,0],"id":22,"left_children":[1,3,5,7,-1,9,11,-1,13,-1,15,17,-1,19,21,23,25,27,29,-1,31,-1,-1,-1,33,-1,35,-1,37,39,-1,-1,-1,-1,-1,-1,-1,-1,-1,-1,-1],"loss_changes":[3.895534E2,5.6875305E0,1.4505428E2,8.015747E-1,0E0,1.15642044E2,7.383385E1,0E0,7.8500366E0,0E0,1.2850607E2,1.4476707E1,0E0,5.235748E-1,2.3180977E1,3.0957987E1,3.3244415E1,3.181778E0,5.0775665E1,0E0,6.254674E0,0E0,0E0,0E0,1.6400429E1,0E0,7.267497E1,0E0,1.5407161E1,1.8445995E1,0E0,0E0,0E0,0E0,0E0,0E0,0E0,0E0,0E0,0E0,0E0],"parents":[2147483647,0,0,1,1,2,2,3,3,5,5,6,6,8,8,10,10,11,11,13,13,14,14,15,15,16,16,17,17,18,18,20,20,24,24,26,26,28,28,29,29],"right_children":[2,4,6,8,-1,10,12,-1,14,-1,16,18,-1,20,22,24,26,28,30,-1,32,-1,-1,-1,34,-1,36,-1,38,40,-1,-1,-1,-1,-1,-1,-1,-1,-1,-1,-1],"split_conditions":[0E0,2.4411962E0,4.089098E-3,6.6E-1,-3.436173E-2,3.8E-1,1.3791284E-1,6.0243655E-2,3.9931532E-2,-6.0024586E-2,8.683633E-1,6.6E-1,-6.249593E-2,1.0207E10,-7.480576E-2,1.053E8,2.27E0,8.0912404E-2,3.323999E-2,5.8207374E-2,3.5127E10,5.0876785E-2,-6.1764907E-2,-5.922832E-2,5.695E9,-6.025588E-2,2.38E0,5.7397284E-2,7E-2,2.8403256E-2,-6.384256E-2,-4.1101728E-2,5.394259E-2,9.418786E-3,4.5842275E-2,5.261856E-2,-5.8266796E-2,5.6213927E-2,-7.296472E-2,-5.131607E-2,5.9443094E-2],"split_indices":[10,9,10,8,0,8,10,0,2,0,9,8,0,0,10,1,8,2,10,0,0,0,0,0,0,0,8,0,8,10,0,0,0,0,0,0,0,0,0,0,0],"split_type":[0,0,0,0,0,0,0,0,0,0,0,0,0,0,0,0,0,0,0,0,0,0,0,0,0,0,0,0,0,0,0,0,0,0,0,0,0,0,0,0,0],"sum_hessian":[8.8806067E2,2.3881364E2,6.49247E2,2.3766354E2,1.1501021E0,5.0618845E2,1.430586E2,1.1091349E2,1.2675005E2,2.1347609E2,2.9271234E2,1.2315628E2,1.9902311E1,1.0491536E2,2.1834698E1,1.3633978E2,1.5637256E2,7.3653885E1,4.9502396E1,9.647292E1,8.4424305E0,1.659728E1,5.2374153E0,9.50666E0,1.2683312E2,9.743108E1,5.8941475E1,6.3759506E1,9.8943815E0,3.6494343E1,1.3008055E1,1.4142714E0,7.0281587E0,5.45311E1,7.2302025E1,2.425634E1,3.4685135E1,7.695835E0,2.1985466E0,3.457027E0,3.3037315E1],"tree_param":{"num_deleted":"0","num_feature":"12","num_nodes":"41","size_leaf_vector":"1"}},{"base_weights":[4.653445E-2,-9.85961E-1,1.1088525E0,1.0360283E0,-6.1577242E-2,1.150378E0,-5.7531375E-2,-5.812019E-2,1.135951E0,5.893868E-1,1.1874354E0,8.756466E-1,6.180815E-2,5.9357192E-2,-6.9579236E-2,1.2080659E0,4.3213034E-1,5.762727E-2,-5.9854984E-2,6.1991174E-2,9.917461E-1,-5.2722216E-2,5.6442E-2,-7.5663336E-2,6.0994484E-2],"categories":[],"categories_nodes":[],"categories_segments":[],"categories_sizes":[],"default_left":[0,0,0,0,0,0,0,0,0,0,0,0,0,0,0,0,0,0,0,0,0,0,0,0,0],"id":23,"left_children":[1,3,5,7,-1,9,-1,-1,11,13,15,17,-1,-1,-1,19,21,-1,-1,-1,23,-1,-1,-1,-1],"loss_changes":[9.6439734E2,2.226997E2,4.1982788E1,1.2048439E1,0E0,8.156738E0,0E0,0E0,1.4928436E-1,3.526236E1,5.6897583E0,1.0880811E1,0E0,0E0,0E0,1.432312E0,1.3780393E1,0E0,0E0,0E0,3.3051014E1,0E0,0E0,0E0,0E0],"parents":[2147483647,0,0,1,1,2,2,3,3,5,5,8,8,9,9,10,10,11,11,15,15,16,16,20,20],"right_children":[2,4,6,8,-1,10,-1,-1,12,14,16,18,-1,-1,-1,20,22,-1,-1,-1,24,-1,-1,-1,-1],"split_conditions":[2.74049E-1,-4.997108E-2,2.19112E-1,1.8266848E-1,-6.1577242E-2,3.0031595E-1,-5.7531375E-2,-5.812019E-2,1.9185147E-1,-2.8026057E-2,1.3791284E-1,-9.228363E-2,6.180815E-2,5.9357192E-2,-6.9579236E-2,3.7793756E-2,4.2816845E-1,5.762727E-2,-5.9854984E-2,6.1991174E-2,3.534892E-1,-5.2722216E-2,5.6442E-2,-7.5663336E-2,6.0994484E-2],"split_indices":[11,10,10,11,0,11,0,0,11,10,10,10,0,0,0,10,3,0,0,0,11,0,0,0,0],"split_type":[0,0,0,0,0,0,0,0,0,0,0,0,0,0,0,0,0,0,0,0,0,0,0,0,0],"sum_hessian":[8.7725507E2,4.4490845E2,4.323466E2,4.7836117E1,3.9707236E2,4.2502618E2,7.3203926E0,1.6174345E0,4.621868E1,2.7383772E1,3.9764243E2,1.5554144E1,3.066454E1,2.134397E1,6.0398026E0,3.8648642E2,1.1155992E1,1.4112768E1,1.4413764E0,3.3288474E2,5.360169E1,3.396146E0,7.7598453E0,4.004073E0,4.959762E1],"tree_param":{"num_deleted":"0","num_feature":"12","num_nodes":"25","size_leaf_vector":"1"}},{"base_weights":[1.8721513E-2,1.0778357E0,-3.904409E-1,5.9097167E-2,9.931228E-1,-6.864348E-1,5.474856E-1,1.0429875E0,4.3063968E-1,-1.2015922E-1,-1.0582651E0,8.124863E-1,-5.659408E-1,1.0661485E0,-4.0831868E-2,5.7784986E-2,-5.6208223E-2,-5.8066066E-2,3.9471135E-1,-5.912E-2,-4.8410743E-1,1.0820043E0,2.3764582E-1,-6.0582425E-2,6.790748E-1,5.7712074E-2,8.85414E-1,-6.504019E-2,5.7420063E-1,4.788811E-2,-5.7148244E-2,5.712555E-1,1.1324085E0,9.7378075E-1,-6.1463267E-2,-4.2450946E-2,5.5564553E-2,5.509564E-2,-5.3747334E-2,-5.8870565E-2,3.6557015E-2,5.2916724E-2,-5.9072267E-2,3.528663E-2,5.8318157E-2,5.8663554E-2,-4.4715818E-2],"categories":[],"categories_nodes":[],"categories_segments":[],"categories_sizes":[],"default_left":[0,0,0,0,0,0,0,0,0,0,0,0,0,0,0,0,0,0,0,0,0,0,0,0,0,0,0,0,0,0,0,0,0,0,0,0,0,0,0,0,0,0,0,0,0,0,0],"id":24,"left_children":[1,3,5,-1,7,9,11,13,15,17,19,21,23,25,-1,-1,-1,-1,27,-1,29,31,33,-1,35,-1,37,-1,39,-1,-1,41,43,45,-1,-1,-1,-1,-1,-1,-1,-1,-1,-1,-1,-1,-1],"loss_changes":[3.6171817E2,8.775635E-1,1.6753967E2,0E0,3.323471E0,9.633702E1,4.324216E1,6.161865E0,1.5567001E1,9.840567E1,1.9128815E1,1.7951973E1,2.370604E1,9.168091E-1,0E0,0E0,0E0,0E0,3.8180298E1,0E0,4.938447E1,1.4057617E0,4.3092056E1,0E0,7.787212E0,0E0,1.9942596E1,0E0,3.1628136E1,0E0,0E0,9.087288E0,2.135086E-1,1.0884474E1,0E0,0E0,0E0,0E0,0E0,0E0,0E0,0E0,0E0,0E0,0E0,0E0,0E0],"parents":[2147483647,0,0,1,1,2,2,4,4,5,5,6,6,7,7,8,8,9,9,10,10,11,11,12,12,13,13,18,18,20,20,21,21,22,22,24,24,26,26,28,28,31,31,32,32,33,33],"right_children":[2,4,6,-1,8,10,12,14,16,18,20,22,24,26,-1,-1,-1,-1,28,-1,30,32,34,-1,36,-1,38,-1,40,-1,-1,42,44,46,-1,-1,-1,-1,-1,-1,-1,-1,-1,-1,-1,-1,-1],"split_conditions":[0E0,6.6E-1,1.7749267E-2,5.9097167E-2,1.1761E10,8.683633E-1,1.3791284E-1,1.427E9,-9.228363E-2,3.4E-1,2.27E0,6.6E-1,3.962E9,-4.997108E-2,-4.0831868E-2,5.7784986E-2,-5.6208223E-2,-5.8066066E-2,2.0661116E-2,-5.912E-2,2.38E0,1.2112E9,3.323999E-2,-6.0582425E-2,4.035789E-1,5.7712074E-2,6.237515E-3,-6.504019E-2,1.33798E8,4.788811E-2,-5.7148244E-2,4.7192E7,8.891875E-3,2.657995E-1,-6.1463267E-2,-4.2450946E-2,5.5564553E-2,5.509564E-2,-5.3747334E-2,-5.8870565E-2,3.6557015E-2,5.2916724E-2,-5.9072267E-2,3.528663E-2,5.8318157E-2,5.8663554E-2,-4.4715818E-2],"split_indices":[10,8,10,0,0,9,10,1,10,8,8,8,1,10,0,0,0,0,2,0,8,0,10,0,3,0,2,0,1,0,0,0,2,3,0,0,0,0,0,0,0,0,0,0,0,0,0],"split_type":[0,0,0,0,0,0,0,0,0,0,0,0,0,0,0,0,0,0,0,0,0,0,0,0,0,0,0,0,0,0,0,0,0,0,0,0,0,0,0,0,0,0,0,0,0,0,0],"sum_hessian":[8.3273157E2,2.3160065E2,6.011309E2,9.8094864E1,1.3350578E2,4.5713495E2,1.4399599E2,1.21849464E2,1.1656321E1,1.8171576E2,2.754192E2,1.1653128E2,2.7464708E1,1.2077197E2,1.0774926E0,8.124344E0,3.5319772E0,5.9711887E1,1.2200387E2,2.255871E2,4.983208E1,7.873401E1,3.779727E1,1.8102785E1,9.361922E0,7.7574486E1,4.3197487E1,1.1081079E1,1.1092279E2,1.5486699E1,3.4345383E1,8.17991E0,7.05541E1,2.5391375E1,1.2405896E1,1.8515295E0,7.510393E0,3.929565E1,3.9018388E0,8.586466E0,1.0233633E2,6.711062E0,1.4688479E0,6.806603E0,6.3747498E1,2.3277555E1,2.11382E0],"tree_param":{"num_deleted":"0","num_feature":"12","num_nodes":"47","size_leaf_vector":"1"}},{"base_weights":[6.573983E-2,-9.022078E-1,1.1351658E0,9.994997E-1,-1.2158552E0,1.1991783E0,-5.8779188E-2,-5.9445597E-2,1.0908451E0,-5.897786E-2,-6.9336556E-2,6.124715E-2,1.0445534E0,7.411792E-1,5.961269E-2,-6.7072734E-2,5.9390564E-2,5.615279E-2,-5.8659613E-2],"categories":[],"categories_nodes":[],"categories_segments":[],"categories_sizes":[],"default_left":[0,0,0,0,0,0,0,0,0,0,0,0,0,0,0,0,0,0,0],"id":25,"left_children":[1,3,5,7,9,11,-1,-1,13,-1,-1,-1,15,17,-1,-1,-1,-1,-1],"loss_changes":[8.670833E2,2.634928E2,6.0270752E1,1.3851486E1,7.08313E-1,2.6507568E-1,0E0,0E0,1.2725677E0,0E0,0E0,0E0,2.284237E1,1.3243933E1,0E0,0E0,0E0,0E0,0E0],"parents":[2147483647,0,0,1,1,2,2,3,3,4,4,5,5,8,8,12,12,13,13],"right_children":[2,4,6,8,10,12,-1,-1,14,-1,-1,-1,16,18,-1,-1,-1,-1,-1],"split_conditions":[3.0031595E-1,-3.75125E-2,1.3791284E-1,1.8266848E-1,2.3821878E-1,3.323999E-2,-5.8779188E-2,-5.9445597E-2,1.9860621E-1,-5.897786E-2,-6.9336556E-2,6.124715E-2,3.534892E-1,-9.228363E-2,5.961269E-2,-6.7072734E-2,5.9390564E-2,5.615279E-2,-5.8659613E-2],"split_indices":[11,10,10,11,11,10,0,0,11,0,0,0,11,10,0,0,0,0,0],"split_type":[0,0,0,0,0,0,0,0,0,0,0,0,0,0,0,0,0,0,0],"sum_hessian":[8.3565234E2,4.3871948E2,3.9693283E2,6.180382E1,3.7691568E2,3.8670145E2,1.0231386E1,1.9949173E0,5.9808903E1,3.1739624E2,5.9519424E1,3.255362E2,6.116525E1,1.5313948E1,4.4494953E1,2.9906714E0,5.8174576E1,1.311178E1,2.2021677E0],"tree_param":{"num_deleted":"0","num_feature":"12","num_nodes":"19","size_leaf_vector":"1"}},{"base_weights":[-4.016996E-2,-1.0260257E0,1.0521818E0,9.164074E-1,-5.9873164E-2,1.0991943E0,-5.500532E-2,-5.153062E-2,1.0230894E0,9.07273E-2,1.1357414E0,4.9228635E-1,5.9589934E-2,-6.6292346E-2,5.448824E-2,5.9972085E-2,8.0650085E-1,5.2173357E-2,-6.276277E-2,-7.2846726E-2,5.703128E-2],"categories":[],"categories_nodes":[],"categories_segments":[],"categories_sizes":[],"default_left":[0,0,0,0,0,0,0,0,0,0,0,0,0,0,0,0,0,0,0,0,0],"id":26,"left_children":[1,3,5,7,-1,9,-1,-1,11,13,15,17,-1,-1,-1,-1,19,-1,-1,-1,-1],"loss_changes":[7.913482E2,1.2971326E2,3.6483093E1,7.6783333E0,0E0,1.2489258E1,0E0,0E0,2.165676E0,1.9892887E1,5.9457397E0,1.0090954E1,0E0,0E0,0E0,0E0,4.4382042E1,0E0,0E0,0E0,0E0],"parents":[2147483647,0,0,1,1,2,2,3,3,5,5,8,8,9,9,10,10,11,11,16,16],"right_children":[2,4,6,8,-1,10,-1,-1,12,14,16,18,-1,-1,-1,-1,20,-1,-1,-1,-1],"split_conditions":[2.74049E-1,-4.997108E-2,2.19112E-1,1.759509E-1,-5.9873164E-2,3.0031595E-1,-5.500532E-2,-5.153062E-2,1.9185147E-1,1.4256E10,3.323999E-2,-9.8E7,5.9589934E-2,-6.6292346E-2,5.448824E-2,5.9972085E-2,4.0366593E-1,5.2173357E-2,-6.276277E-2,-7.2846726E-2,5.703128E-2],"split_indices":[11,10,10,11,0,11,0,0,11,0,10,1,0,0,0,0,11,0,0,0,0],"split_type":[0,0,0,0,0,0,0,0,0,0,0,0,0,0,0,0,0,0,0,0,0],"sum_hessian":[7.328359E2,3.8522665E2,3.4760922E2,3.0889967E1,3.5433667E2,3.406575E2,6.9517074E0,1.1547306E0,2.9735237E1,1.2035534E1,3.2862198E2,8.11652E0,2.1618717E1,4.84231E0,7.193224E0,2.7313388E2,5.5488094E1,6.4766545E0,1.6398654E0,6.7051897E0,4.8782906E1],"tree_param":{"num_deleted":"0","num_feature":"12","num_nodes":"21","size_leaf_vector":"1"}},{"base_weights":[1.8182656E-2,3.5310096E-1,-3.6553016E-1,-5.6017376E-2,5.4647905E-1,-5.7243224E-2,2.7417672E-1,7.5467396E-1,1.3943418E-4,-5.5642378E-2,5.470981E-1,6.0254043E-1,5.6542493E-2,-6.2392414E-1,5.37946E-1,8.551187E-1,1.8965115E-1,7.128155E-1,-5.8448654E-2,-6.279468E-2,3.730064E-1,-5.532467E-2,7.2758317E-1,3.9297634E-1,9.6119237E-1,-5.665381E-1,6.04259E-1,5.6942027E-2,2.8839055E-2,5.3427547E-2,-5.61898E-2,-4.433837E-2,4.293146E-2,5.308501E-2,-5.5755008E-2,2.4236921E-2,5.0840158E-2,3.8139794E-2,-6.039421E-2,3.838641E-2,-5.494323E-2],"categories":[],"categories_nodes":[],"categories_segments":[],"categories_sizes":[],"default_left":[0,0,0,0,0,0,0,0,0,0,0,0,0,0,0,0,0,0,0,0,0,0,0,0,0,0,0,0,0,0,0,0,0,0,0,0,0,0,0,0,0],"id":27,"left_children":[1,3,5,-1,7,-1,9,11,13,-1,15,17,-1,19,21,23,25,27,-1,-1,29,-1,31,33,35,37,39,-1,-1,-1,-1,-1,-1,-1,-1,-1,-1,-1,-1,-1,-1],"loss_changes":[9.671951E1,1.1510594E2,1.7519196E2,0E0,4.047962E1,0E0,7.384002E1,1.4065643E1,3.3628567E1,0E0,1.7709015E1,3.7095108E1,0E0,2.9688696E1,1.7587885E1,3.8822594E0,2.4300205E1,9.506248E0,0E0,0E0,2.0736807E1,0E0,1.1097147E1,1.9250076E1,1.3614883E0,2.4432182E1,1.4719109E1,0E0,0E0,0E0,0E0,0E0,0E0,0E0,0E0,0E0,0E0,0E0,0E0,0E0,0E0],"parents":[2147483647,0,0,1,1,2,2,4,4,6,6,7,7,8,8,10,10,11,11,13,13,14,14,15,15,16,16,17,17,20,20,22,22,23,23,24,24,25,25,26,26],"right_children":[2,4,6,-1,8,-1,10,12,14,-1,16,18,-1,20,22,24,26,28,-1,-1,30,-1,32,34,36,38,40,-1,-1,-1,-1,-1,-1,-1,-1,-1,-1,-1,-1,-1,-1],"split_conditions":[1.5128384E0,1.982013E-1,1.58E0,-5.6017376E-2,-9.848999E-1,-5.7243224E-2,2.0023808E0,1.49404E0,5.695E9,-5.5642378E-2,1.1435608E-2,1.231525E0,5.6542493E-2,6.645E8,2.638213E-2,1.0214627E-3,-5.163966E-1,7E-2,-5.8448654E-2,-6.279468E-2,7.35E8,-5.532467E-2,1E-1,6.1344E7,1.778939E9,3.79613E8,7.1445507E-1,5.6942027E-2,2.8839055E-2,5.3427547E-2,-5.61898E-2,-4.433837E-2,4.293146E-2,5.308501E-2,-5.5755008E-2,2.4236921E-2,5.0840158E-2,3.8139794E-2,-6.039421E-2,3.838641E-2,-5.494323E-2],"split_indices":[9,9,8,0,7,0,9,9,0,0,2,9,0,1,2,2,7,8,0,0,1,0,8,1,0,0,7,0,0,0,0,0,0,0,0,0,0,0,0,0,0],"split_type":[0,0,0,0,0,0,0,0,0,0,0,0,0,0,0,0,0,0,0,0,0,0,0,0,0,0,0,0,0,0,0,0,0,0,0,0,0,0,0,0,0],"sum_hessian":[7.506038E2,4.0082724E2,3.497766E2,4.5946136E1,3.548811E2,1.5732408E2,1.9245251E2,2.5668445E2,9.819667E1,3.1136248E1,1.6131627E2,1.8462138E2,7.206306E1,4.537916E1,5.281751E1,8.590101E1,7.541526E1,1.7436494E2,1.0256434E1,2.7614288E1,1.7764875E1,4.961247E0,4.785626E1,1.6914143E1,6.898687E1,2.6576622E1,4.8838642E1,4.041713E1,1.3394781E2,1.2324125E1,5.440749E0,3.1601133E0,4.4696148E1,1.1923095E1,4.991048E0,8.225998E0,6.076087E1,8.587575E0,1.7989046E1,4.5062664E1,3.7759783E0],"tree_param":{"num_deleted":"0","num_feature":"12","num_nodes":"41","size_leaf_vector":"1"}},{"base_weights":[2.717282E-2,1.0519483E0,-4.092621E-1,5.504418E-2,8.808026E-1,-6.545286E-1,4.3329576E-1,9.944536E-1,-4.9479824E-2,-1.0384954E-1,-1.0156635E0,7.1116775E-1,-5.7939257E-2,7.2906065E-1,5.3511064E-2,-5.6075763E-2,3.687947E-1,-5.7163145E-2,-3.972051E-1,9.229274E-1,-5.533897E-2,4.9565513E-2,4.418896E-1,-5.353425E-2,4.850892E-1,4.7493666E-2,-5.4950494E-2,5.7028502E-2,3.996627E-1,7.3138785E-1,-5.660944E-2,4.4637695E-2,-4.5293372E-2,5.439608E-2,1.3735764E-2,-6.1666097E-2,4.7128778E-2,-5.749471E-2,4.991226E-2],"categories":[],"categories_nodes":[],"categories_segments":[],"categories_sizes":[],"default_left":[0,0,0,0,0,0,0,0,0,0,0,0,0,0,0,0,0,0,0,0,0,0,0,0,0,0,0,0,0,0,0,0,0,0,0,0,0,0,0],"id":28,"left_children":[1,3,5,-1,7,9,11,13,-1,15,17,19,-1,21,-1,-1,23,-1,25,27,29,-1,31,-1,33,-1,-1,-1,35,37,-1,-1,-1,-1,-1,-1,-1,-1,-1],"loss_changes":[3.197944E2,8.1889343E-1,1.03920746E2,0E0,1.2141388E1,7.72216E1,5.1112946E1,2.2473907E-1,0E0,7.502347E1,1.8068558E1,1.5860912E1,0E0,6.341286E-1,0E0,0E0,1.8377039E1,0E0,4.044426E1,8.24205E0,1.9489462E1,0E0,6.0344205E0,0E0,1.2305609E1,0E0,0E0,0E0,2.2417593E1,7.8429537E0,0E0,0E0,0E0,0E0,0E0,0E0,0E0,0E0,0E0],"parents":[2147483647,0,0,1,1,2,2,4,4,5,5,6,6,7,7,9,9,10,10,11,11,13,13,16,16,18,18,19,19,20,20,22,22,24,24,28,28,29,29],"right_children":[2,4,6,-1,8,10,12,14,-1,16,18,20,-1,22,-1,-1,24,-1,26,28,30,-1,32,-1,34,-1,-1,-1,36,38,-1,-1,-1,-1,-1,-1,-1,-1,-1],"split_conditions":[0E0,-3.75125E-2,1.5766383E-3,5.504418E-2,1.021294E9,8.683633E-1,1.3791284E-1,2.93E8,-4.9479824E-2,3.4E-1,2.27E0,4.58E8,-5.7939257E-2,3.8543073E-4,5.3511064E-2,-5.6075763E-2,1.053E8,-5.7163145E-2,2.38E0,3.323999E-2,6.6E-1,4.9565513E-2,1E-1,-5.353425E-2,1.35743E8,4.7493666E-2,-5.4950494E-2,5.7028502E-2,1.1355405E-1,7.05E8,-5.660944E-2,4.4637695E-2,-4.5293372E-2,5.439608E-2,1.3735764E-2,-6.1666097E-2,4.7128778E-2,-5.749471E-2,4.991226E-2],"split_indices":[10,10,10,0,1,9,10,1,0,8,8,1,0,2,0,0,1,0,8,10,8,0,8,0,1,0,0,0,10,1,0,0,0,0,0,0,0,0,0],"split_type":[0,0,0,0,0,0,0,0,0,0,0,0,0,0,0,0,0,0,0,0,0,0,0,0,0,0,0,0,0,0,0,0,0,0,0,0,0,0,0],"sum_hessian":[7.1306476E2,2.1255722E2,5.005075E2,1.6107033E2,5.1486897E1,3.8783334E2,1.1267418E2,4.8979103E1,2.5077953E0,1.5411601E2,2.3371732E2,9.640206E1,1.6272114E1,1.3236767E1,3.5742332E1,4.844172E1,1.056743E2,1.9304086E2,4.067645E1,7.537457E1,2.1027487E1,5.636987E0,7.59978E0,7.28573E0,9.838857E1,1.3811845E1,2.6864605E1,5.24E1,2.2974573E1,1.2335907E1,8.691581E0,5.9477E0,1.65208E0,2.4373697E1,7.401488E1,5.4151363E0,1.7559437E1,1.1213844E0,1.1214522E1],"tree_param":{"num_deleted":"0","num_feature":"12","num_nodes":"39","size_leaf_vector":"1"}},{"base_weights":[5.644037E-2,-9.630529E-1,1.0490589E0,-1.1706787E0,-3.829404E-1,4.452754E-1,1.0921613E0,-5.67787E-2,-6.7744195E-2,6.958882E-2,-5.5498254E-2,-5.560745E-2,7.1645296E-1,9.4774026E-1,5.7243712E-2,-6.0773678E-2,4.3723756E-1,8.640737E-1,-4.386374E-2,1.0265103E-1,1.0384572E0,-3.329202E-2,9.3298924E-1,5.025353E-2,-4.4769656E-2,-5.607164E-2,4.9336057E-2,1.0694462E0,-4.005723E-2,2.2665475E-2,-5.695463E-2,5.422414E-2,-3.830849E-2,5.47975E-2,3.385913E-2],"categories":[],"categories_nodes":[],"categories_segments":[],"categories_sizes":[],"default_left":[0,0,0,0,0,0,0,0,0,0,0,0,0,0,0,0,0,0,0,0,0,0,0,0,0,0,0,0,0,0,0,0,0,0,0],"id":29,"left_children":[1,3,5,7,9,11,13,-1,-1,15,-1,-1,17,19,-1,-1,21,23,-1,25,27,29,31,-1,-1,-1,-1,33,-1,-1,-1,-1,-1,-1,-1],"loss_changes":[7.2085614E2,4.1881042E1,8.905792E0,1.3186646E-1,3.1041122E1,1.16656685E1,1.4740906E0,0E0,0E0,2.8382195E1,0E0,0E0,6.057828E0,7.229805E0,0E0,0E0,1.0894589E1,6.139578E0,0E0,1.2346486E1,5.7770844E0,1.3892639E1,6.6773224E0,0E0,0E0,0E0,0E0,1.4473724E-1,0E0,0E0,0E0,0E0,0E0,0E0,0E0],"parents":[2147483647,0,0,1,1,2,2,3,3,4,4,5,5,6,6,9,9,12,12,13,13,16,16,17,17,19,19,20,20,21,21,22,22,27,27],"right_children":[2,4,6,8,10,12,14,-1,-1,16,-1,-1,18,20,-1,-1,22,24,-1,26,28,30,32,-1,-1,-1,-1,34,-1,-1,-1,-1,-1,-1,-1],"split_conditions":[2.74049E-1,1.58E0,3.0031595E-1,2.2267966E-1,1.69E0,8.683633E-1,1.1E-1,-5.67787E-2,-6.7744195E-2,2.8287163E-2,-5.5498254E-2,-5.560745E-2,9.028055E-2,3.343915E-1,5.7243712E-2,-6.0773678E-2,2.3866785E-1,2.657995E-1,-4.386374E-2,2.962E9,2.962E9,1.8291596E-1,3.1577572E-1,5.025353E-2,-4.4769656E-2,-5.607164E-2,4.9336057E-2,1.9073321E-1,-4.005723E-2,2.2665475E-2,-5.695463E-2,5.422414E-2,-3.830849E-2,5.47975E-2,3.385913E-2],"split_indices":[11,8,11,11,8,9,8,0,0,2,0,0,2,11,0,0,11,3,0,1,1,11,3,0,0,0,0,2,0,0,0,0,0,0,0],"split_type":[0,0,0,0,0,0,0,0,0,0,0,0,0,0,0,0,0,0,0,0,0,0,0,0,0,0,0,0,0,0,0,0,0,0,0],"sum_hessian":[7.1033264E2,3.5043726E2,3.598954E2,2.5732208E2,9.311517E1,2.4734959E1,3.3516043E2,2.2215063E2,3.5171444E1,5.7949417E1,3.5165756E1,3.2082405E0,2.1526718E1,9.469584E1,2.404646E2,1.2377968E1,4.557145E1,2.0120832E1,1.4058846E0,9.386431E0,8.530941E1,2.385908E1,2.1712368E1,1.9025005E1,1.0958271E0,3.823677E0,5.5627537E0,8.4307846E1,1.0015577E0,1.6978046E1,6.881034E0,2.0267145E1,1.4452235E0,7.7291626E1,7.0162215E0],"tree_param":{"num_deleted":"0","num_feature":"12","num_nodes":"35","size_leaf_vector":"1"}},{"base_weights":[3.359563E-2,-1.0373663E0,1.0526434E0,-5.8079302E-2,-6.3263136E-1,6.0150385E-1,1.0815822E0,-9.377741E-1,2.1497594E-1,-5.2136082E-2,8.760684E-1,-3.062619E-2,1.0888456E0,4.266307E-1,-5.9489306E-2,-4.9915228E-2,6.4893883E-1,5.2508533E-1,5.1635277E-2,9.3762344E-1,5.69982E-2,-4.1945126E-2,4.6899647E-2,8.93E-1,-3.871161E-2,-4.836608E-2,4.7427528E-2,8.028858E-2,1.0367674E0,2.8374305E-2,5.4271903E-2,-5.713976E-2,4.873124E-2,5.349591E-2,3.0869855E-2],"categories":[],"categories_nodes":[],"categories_segments":[],"categories_sizes":[],"default_left":[0,0,0,0,0,0,0,0,0,0,0,0,0,0,0,0,0,0,0,0,0,0,0,0,0,0,0,0,0,0,0,0,0,0,0],"id":30,"left_children":[1,3,5,-1,7,9,11,13,15,-1,17,-1,19,21,-1,-1,23,25,-1,27,-1,-1,-1,29,-1,-1,-1,31,33,-1,-1,-1,-1,-1,-1],"loss_changes":[7.340344E2,1.57534485E1,3.8487244E0,0E0,2.0689373E1,1.1308933E1,4.636627E0,2.0598957E1,1.2116413E1,0E0,5.72422E-1,0E0,1.4170532E0,7.158648E0,0E0,0E0,6.474456E0,6.1572075E0,0E0,7.301338E0,0E0,0E0,0E0,3.033924E-1,0E0,0E0,0E0,1.2149929E1,4.2087555E-1,0E0,0E0,0E0,0E0,0E0,0E0],"parents":[2147483647,0,0,1,1,2,2,4,4,5,5,6,6,7,7,8,8,10,10,12,12,13,13,16,16,17,17,19,19,23,23,27,27,28,28],"right_children":[2,4,6,-1,8,10,12,14,16,-1,18,-1,20,22,-1,-1,24,26,-1,28,-1,-1,-1,30,-1,-1,-1,32,34,-1,-1,-1,-1,-1,-1],"split_conditions":[2.74049E-1,1.58E0,3.0031595E-1,-5.8079302E-2,2.4325755E-1,8.683633E-1,-3.82E8,-9.8E7,-5.815E-1,-5.2136082E-2,1.4256E10,-3.062619E-2,1.1E-1,1.323566E-1,-5.9489306E-2,-4.9915228E-2,-2.5691903E-1,-1.464198E0,5.1635277E-2,3.343915E-1,5.69982E-2,-4.1945126E-2,4.6899647E-2,1.4642E10,-3.871161E-2,-4.836608E-2,4.7427528E-2,2.962E9,1.9073321E-1,2.8374305E-2,5.4271903E-2,-5.713976E-2,4.873124E-2,5.349591E-2,3.0869855E-2],"split_indices":[11,8,11,0,11,9,1,1,7,0,0,0,8,2,0,0,7,7,0,11,0,0,0,0,0,0,0,1,2,0,0,0,0,0,0],"split_type":[0,0,0,0,0,0,0,0,0,0,0,0,0,0,0,0,0,0,0,0,0,0,0,0,0,0,0,0,0,0,0,0,0,0,0],"sum_hessian":[6.705855E2,3.269556E2,3.4362994E2,2.487425E2,7.821311E1,2.2026978E1,3.2160297E2,5.743122E1,2.0781893E1,2.7515624E0,1.9275415E1,1.0172313E0,3.2058572E2,8.845945E0,4.8585278E1,5.1323495E0,1.5649544E1,7.290823E0,1.1984593E1,8.587779E1,2.3470793E2,2.3613896E0,6.484556E0,1.3676648E1,1.9728957E0,1.3276216E0,5.9632015E0,9.0892725E0,7.678852E1,6.548545E0,7.1281033E0,3.7217023E0,5.3675704E0,6.9725555E1,7.0629673E0],"tree_param":{"num_deleted":"0","num_feature":"12","num_nodes":"35","size_leaf_vector":"1"}},{"base_weights":[8.4028564E-2,-8.55256E-1,1.0311927E0,9.772968E-1,-5.7784736E-2,1.074701E0,-5.362455E-2,-5.3016562E-2,1.0669229E0,3.459441E-1,1.1118996E0,7.49719E-1,5.8790375E-2,5.4134008E-2,-6.321072E-2,5.7527013E-2,6.4785594E-1,5.4821957E-2,-6.187571E-2,-6.486508E-2,5.2695163E-2],"categories":[],"categories_nodes":[],"categories_segments":[],"categories_sizes":[],"default_left":[0,0,0,0,0,0,0,0,0,0,0,0,0,0,0,0,0,0,0,0,0],"id":31,"left_children":[1,3,5,7,-1,9,-1,-1,11,13,15,17,-1,-1,-1,-1,19,-1,-1,-1,-1],"loss_changes":[6.0756805E2,1.899403E2,3.2271637E1,1.0051704E1,0E0,8.658997E0,0E0,0E0,7.5167084E-1,2.2310108E1,4.937866E0,1.1584054E1,0E0,0E0,0E0,0E0,2.2418047E1,0E0,0E0,0E0,0E0],"parents":[2147483647,0,0,1,1,2,2,3,3,5,5,8,8,9,9,10,10,11,11,16,16],"right_children":[2,4,6,8,-1,10,-1,-1,12,14,16,18,-1,-1,-1,-1,20,-1,-1,-1,-1],"split_conditions":[2.74049E-1,-4.997108E-2,2.19112E-1,1.8266848E-1,-5.7784736E-2,3.0031595E-1,-5.362455E-2,-5.3016562E-2,1.8612817E-1,-2.8026057E-2,8.4428385E-2,-9.228363E-2,5.8790375E-2,5.4134008E-2,-6.321072E-2,5.7527013E-2,4.0366593E-1,5.4821957E-2,-6.187571E-2,-6.486508E-2,5.2695163E-2],"split_indices":[11,10,10,11,0,11,0,0,11,10,10,10,0,0,0,0,11,0,0,0,0],"split_type":[0,0,0,0,0,0,0,0,0,0,0,0,0,0,0,0,0,0,0,0,0],"sum_hessian":[6.8093286E2,3.4193723E2,3.3899564E2,4.7845615E1,2.940916E2,3.3260583E2,6.3898044E0,1.5595276E0,4.628609E1,1.6653248E1,3.1595258E2,1.3843238E1,3.2442852E1,1.1650224E1,5.0030236E0,2.903001E2,2.5652477E1,1.2168425E1,1.6748129E0,4.0510564E0,2.1601421E1],"tree_param":{"num_deleted":"0","num_feature":"12","num_nodes":"21","size_leaf_vector":"1"}},{"base_weights":[2.4882624E-2,-9.239159E-1,1.0062904E0,-1.0925454E0,-3.879057E-2,5.206301E-1,1.0409633E0,-5.718253E-2,-8.28686E-1,-6.185785E-2,8.7504596E-1,-5.0680656E-2,7.893125E-1,5.7065316E-2,9.673575E-1,3.443108E-2,-5.5500325E-2,9.619498E-1,-3.268334E-2,3.8085845E-1,5.0345898E-2,2.4328684E-2,1.0189586E0,5.3166753E-1,5.633511E-2,4.3550238E-2,-4.6920985E-2,-5.5144843E-2,3.9237782E-2,5.147586E-2,2.8828954E-2,-4.046938E-2,4.8984285E-2],"categories":[],"categories_nodes":[],"categories_segments":[],"categories_sizes":[],"default_left":[0,0,0,0,0,0,0,0,0,0,0,0,0,0,0,0,0,0,0,0,0,0,0,0,0,0,0,0,0,0,0,0,0],"id":32,"left_children":[1,3,5,7,9,11,13,-1,15,-1,17,-1,19,-1,21,-1,-1,23,-1,25,-1,27,29,31,-1,-1,-1,-1,-1,-1,-1,-1,-1],"loss_changes":[5.769133E2,4.6978424E1,4.586212E0,2.619995E0,5.742619E1,9.990051E0,9.8794556E-1,0E0,2.063893E1,0E0,4.584589E0,0E0,1.352685E0,0E0,8.245239E0,0E0,0E0,1.4269409E0,0E0,6.24772E0,0E0,9.301332E0,1.5893555E-1,6.684826E0,0E0,0E0,0E0,0E0,0E0,0E0,0E0,0E0,0E0],"parents":[2147483647,0,0,1,1,2,2,3,3,4,4,5,5,6,6,8,8,10,10,12,12,14,14,17,17,19,19,21,21,22,22,23,23],"right_children":[2,4,6,8,10,12,14,-1,16,-1,18,-1,20,-1,22,-1,-1,24,-1,26,-1,28,30,32,-1,-1,-1,-1,-1,-1,-1,-1,-1],"split_conditions":[2.74049E-1,2.4429962E-1,3.0031595E-1,1.7736714E-1,2.0151253E0,8.683633E-1,8.683633E-1,-5.718253E-2,1.8098497E-1,-6.185785E-2,3.3488855E-1,-5.0680656E-2,9.557E9,5.7065316E-2,3.343915E-1,3.443108E-2,-5.5500325E-2,3.116423E-1,-3.268334E-2,3.939093E-3,5.0345898E-2,1.2632559E10,1.9073321E-1,2.3093253E-1,5.633511E-2,4.3550238E-2,-4.6920985E-2,-5.5144843E-2,3.9237782E-2,5.147586E-2,2.8828954E-2,-4.046938E-2,4.8984285E-2],"split_indices":[11,11,11,2,9,9,9,0,2,0,3,0,0,0,11,0,0,3,0,2,0,0,2,2,0,0,0,0,0,0,0,0,0],"split_type":[0,0,0,0,0,0,0,0,0,0,0,0,0,0,0,0,0,0,0,0,0,0,0,0,0,0,0,0,0,0,0,0,0],"sum_hessian":[6.1756683E2,3.1402985E2,3.03537E2,2.6357968E2,5.045015E1,2.1293688E1,2.8224332E2,2.1801866E2,4.5561028E1,2.167399E1,2.8776157E1,2.7601292E0,1.853356E1,1.13292206E2,1.689511E2,6.8996725E0,3.8661354E1,2.7579094E1,1.1970632E0,7.3978066E0,1.1135753E1,8.841458E0,1.6010963E2,8.806449E0,1.8772646E1,5.641594E0,1.7562127E0,3.3802903E0,5.461168E0,1.5508098E2,5.0286646E0,2.0033162E0,6.803133E0],"tree_param":{"num_deleted":"0","num_feature":"12","num_nodes":"33","size_leaf_vector":"1"}},{"base_weights":[3.978149E-2,-9.0336984E-1,1.0100261E0,9.3677104E-1,-5.7086308E-2,1.0590789E0,-5.3430986E-2,-5.0491102E-2,1.0520062E0,4.0577284E-1,1.0911452E0,5.897258E-1,5.800579E-2,5.2578043E-2,-5.963237E-2,5.719868E-2,8.1446797E-1,5.1282715E-2,-4.913642E-2,-6.67377E-2,5.572719E-2],"categories":[],"categories_nodes":[],"categories_segments":[],"categories_sizes":[],"default_left":[0,0,0,0,0,0,0,0,0,0,0,0,0,0,0,0,0,0,0,0,0],"id":33,"left_children":[1,3,5,7,-1,9,-1,-1,11,13,15,17,-1,-1,-1,-1,19,-1,-1,-1,-1],"loss_changes":[5.571388E2,1.364906E2,3.1729828E1,9.127853E0,0E0,5.7094116E0,0E0,0E0,1.0368652E0,1.7080421E1,3.151245E0,6.8761845E0,0E0,0E0,0E0,0E0,3.261024E1,0E0,0E0,0E0,0E0],"parents":[2147483647,0,0,1,1,2,2,3,3,5,5,8,8,9,9,10,10,11,11,16,16],"right_children":[2,4,6,8,-1,10,-1,-1,12,14,16,18,-1,-1,-1,-1,20,-1,-1,-1,-1],"split_conditions":[2.74049E-1,-4.997108E-2,2.19112E-1,1.8266848E-1,-5.7086308E-2,3.0031595E-1,-5.3430986E-2,-5.0491102E-2,1.9185147E-1,-3.75125E-2,3.1427737E-2,-9.228363E-2,5.800579E-2,5.2578043E-2,-5.963237E-2,5.719868E-2,3.534892E-1,5.1282715E-2,-4.913642E-2,-6.67377E-2,5.572719E-2],"split_indices":[11,10,10,11,0,11,0,0,11,10,10,10,0,0,0,0,11,0,0,0,0],"split_type":[0,0,0,0,0,0,0,0,0,0,0,0,0,0,0,0,0,0,0,0,0],"sum_hessian":[6.0683954E2,3.077511E2,2.9908847E2,3.495602E1,2.7279507E2,2.9267236E2,6.416126E0,1.5198052E0,3.3436214E1,1.4331967E1,2.783404E2,7.5608115E0,2.5875404E1,1.045151E1,3.8804572E0,2.3108302E2,4.7257355E1,6.191962E0,1.3688496E0,5.3673E0,4.1890057E1],"tree_param":{"num_deleted":"0","num_feature":"12","num_nodes":"21","size_leaf_vector":"1"}},{"base_weights":[3.863329E-2,-8.402811E-1,1.0314386E0,9.634092E-1,-5.6945827E-2,1.1034709E0,-5.5675633E-2,-4.609258E-2,1.0328814E0,5.699226E-2,8.8073164E-1,7.2323E-1,5.718301E-2,-6.602995E-2,5.618104E-2,5.380646E-2,-5.4890264E-2],"categories":[],"categories_nodes":[],"categories_segments":[],"categories_sizes":[],"default_left":[0,0,0,0,0,0,0,0,0,0,0,0,0,0,0,0,0],"id":34,"left_children":[1,3,5,7,-1,9,-1,-1,11,-1,13,15,-1,-1,-1,-1,-1],"loss_changes":[5.1098172E2,1.6842004E2,4.3711914E1,6.8024216E0,0E0,1.1555481E0,0E0,0E0,6.668129E-1,0E0,2.3841183E1,1.0304073E1,0E0,0E0,0E0,0E0,0E0],"parents":[2147483647,0,0,1,1,2,2,3,3,5,5,8,8,10,10,11,11],"right_children":[2,4,6,8,-1,10,-1,-1,12,-1,14,16,-1,-1,-1,-1,-1],"split_conditions":[3.0031595E-1,-4.997108E-2,1.3533981E-1,1.8266848E-1,-5.6945827E-2,3.7793756E-2,-5.5675633E-2,-4.609258E-2,1.9185147E-1,5.699226E-2,3.534892E-1,-9.228363E-2,5.718301E-2,-6.602995E-2,5.618104E-2,5.380646E-2,-5.4890264E-2],"split_indices":[11,10,10,11,0,10,0,0,11,0,11,10,0,0,0,0,0],"split_type":[0,0,0,0,0,0,0,0,0,0,0,0,0,0,0,0,0],"sum_hessian":[5.8359814E2,3.0963602E2,2.739621E2,4.366759E1,2.659684E2,2.6553055E2,8.43156E0,1.1159084E0,4.255168E1,2.2471605E2,4.081449E1,1.3195609E1,2.9356073E1,3.6149302E0,3.7199562E1,1.1396193E1,1.7994165E0],"tree_param":{"num_deleted":"0","num_feature":"12","num_nodes":"17","size_leaf_vector":"1"}},{"base_weights":[4.3754388E-2,9.6217E-1,-2.4852285E-1,5.3390205E-2,7.596392E-1,-5.0737596E-1,5.0398564E-1,8.953071E-1,-5.28876E-2,1.4484077E-2,-9.0787184E-1,6.319883E-1,-5.2772958E-2,9.566503E-1,-3.5428565E-2,-5.3424235E-2,4.1424847E-1,-3.4363706E-2,-9.6386E-1,9.316273E-1,-7.71651E-2,5.629732E-1,5.2175004E-2,-4.875292E-2,5.071022E-1,-4.6193194E-2,4.2684954E-2,-5.453483E-2,-6.6683996E-1,9.7751415E-1,-4.340772E-2,7.677429E-1,-5.5836465E-2,4.861305E-2,-4.460713E-2,9.73022E-4,3.362432E-2,1.9537415E-2,-5.3674854E-2,2.6364882E-2,5.0469335E-2,4.8401948E-2,-3.688785E-2],"categories":[],"categories_nodes":[],"categories_segments":[],"categories_sizes":[],"default_left":[0,0,0,0,0,0,0,0,0,0,0,0,0,0,0,0,0,0,0,0,0,0,0,0,0,0,0,0,0,0,0,0,0,0,0,0,0,0,0,0,0,0,0],"id":35,"left_children":[1,3,5,-1,7,9,11,13,-1,15,17,19,-1,21,-1,-1,23,25,27,29,31,33,-1,-1,35,-1,-1,-1,37,39,-1,41,-1,-1,-1,-1,-1,-1,-1,-1,-1,-1,-1],"loss_changes":[1.5021558E2,2.078888E0,8.296845E1,0E0,1.3218479E1,6.615089E1,2.2461367E1,5.287758E0,0E0,6.035501E1,8.723831E0,2.1645206E1,0E0,9.700699E-1,0E0,0E0,1.3626499E1,1.0127625E1,5.610565E0,6.7491455E0,2.8155682E1,7.06419E0,0E0,0E0,7.7353973E0,0E0,0E0,0E0,2.3177517E1,4.7424316E-1,0E0,6.0628624E0,0E0,0E0,0E0,0E0,0E0,0E0,0E0,0E0,0E0,0E0,0E0],"parents":[2147483647,0,0,1,1,2,2,4,4,5,5,6,6,7,7,9,9,10,10,11,11,13,13,16,16,17,17,18,18,19,19,20,20,21,21,24,24,28,28,29,29,31,31],"right_children":[2,4,6,-1,8,10,12,14,-1,16,18,20,-1,22,-1,-1,24,26,28,30,32,34,-1,-1,36,-1,-1,-1,38,40,-1,42,-1,-1,-1,-1,-1,-1,-1,-1,-1,-1,-1],"split_conditions":[0E0,1.1435608E-2,4.089098E-3,5.3390205E-2,-5.752755E-1,8.683633E-1,2.19112E-1,-2.8026057E-2,-5.28876E-2,7.1665627E-1,-3.42117E8,1.5128384E0,-5.2772958E-2,7.831724E-2,-3.5428565E-2,-5.3424235E-2,1.053E8,1.9073321E-1,3.2976657E-1,1.9073321E-1,3.0951936E-2,1.5128384E0,5.2175004E-2,-4.875292E-2,4.06325E-2,-4.6193194E-2,4.2684954E-2,-5.453483E-2,3.4939075E-1,1.4150394E-3,-4.340772E-2,4.021E8,-5.5836465E-2,4.861305E-2,-4.460713E-2,9.73022E-4,3.362432E-2,1.9537415E-2,-5.3674854E-2,2.6364882E-2,5.0469335E-2,4.8401948E-2,-3.688785E-2],"split_indices":[10,2,10,0,7,9,10,10,0,9,1,9,0,2,0,0,1,2,3,2,10,9,0,0,2,0,0,0,3,2,0,1,0,0,0,0,0,0,0,0,0,0,0],"split_type":[0,0,0,0,0,0,0,0,0,0,0,0,0,0,0,0,0,0,0,0,0,0,0,0,0,0,0,0,0,0,0,0,0,0,0,0,0,0,0,0,0,0,0],"sum_hessian":[5.57713E2,1.3408597E2,4.2362708E2,8.531559E1,4.8770386E1,3.1544415E2,1.08182915E2,4.585471E1,2.9156783E0,1.3738742E2,1.7805672E2,1.0052624E2,7.6566777E0,4.455419E1,1.3005159E0,3.6590458E1,1.0079697E2,1.082244E1,1.6723428E2,7.044665E1,3.0079586E1,9.40497E0,3.5149223E1,5.719468E0,9.50775E1,5.386704E0,5.435736E0,1.1531792E2,5.1916363E1,6.9140724E1,1.3059258E0,1.6737568E1,1.3342018E1,7.599307E0,1.8056631E0,2.436222E1,7.071528E1,1.4429322E1,3.748704E1,5.731018E0,6.3409706E1,1.5087308E1,1.6502606E0],"tree_param":{"num_deleted":"0","num_feature":"12","num_nodes":"43","size_leaf_vector":"1"}},{"base_weights":[3.1795576E-2,-8.9233077E-1,9.85268E-1,9.5068145E-1,-5.606096E-2,1.0277044E0,-4.9764108E-2,-5.688406E-2,5.620655E-2,2.1692982E-1,1.076949E0,5.164079E-2,-6.060339E-2,5.6595135E-2,7.73848E-1,-6.155304E-2,5.4125108E-2],"categories":[],"categories_nodes":[],"categories_segments":[],"categories_sizes":[],"default_left":[0,0,0,0,0,0,0,0,0,0,0,0,0,0,0,0,0],"id":36,"left_children":[1,3,5,7,-1,9,-1,-1,-1,11,13,-1,-1,-1,15,-1,-1],"loss_changes":[4.6807944E2,1.1487224E2,2.2996735E1,1.2270565E1,0E0,1.0005615E1,0E0,0E0,0E0,1.9832508E1,3.1469116E0,0E0,0E0,0E0,2.6227224E1,0E0,0E0],"parents":[2147483647,0,0,1,1,2,2,3,3,5,5,9,9,10,10,14,14],"right_children":[2,4,6,8,-1,10,-1,-1,-1,12,14,-1,-1,-1,16,-1,-1],"split_conditions":[2.74049E-1,-4.997108E-2,2.19112E-1,1.8612817E-1,-5.606096E-2,3.0031595E-1,-4.9764108E-2,-5.688406E-2,5.620655E-2,-3.75125E-2,3.323999E-2,5.164079E-2,-6.060339E-2,5.6595135E-2,3.534892E-1,-6.155304E-2,5.4125108E-2],"split_indices":[11,10,10,11,0,11,0,0,0,10,10,0,0,0,11,0,0],"split_type":[0,0,0,0,0,0,0,0,0,0,0,0,0,0,0,0,0],"sum_hessian":[5.292291E2,2.6878293E2,2.604462E2,2.9344797E1,2.3943814E2,2.554538E2,4.992391E0,1.8240281E0,2.7520767E1,1.4936768E1,2.4051703E2,9.684594E0,5.252173E0,2.0128812E2,3.9228912E1,4.8348637E0,3.4394047E1],"tree_param":{"num_deleted":"0","num_feature":"12","num_nodes":"17","size_leaf_vector":"1"}},{"base_weights":[-1.999767E-2,-8.443199E-1,9.360513E-1,9.513193E-1,-5.5807598E-2,1.0144643E0,-5.4609776E-2,3.057689E-1,5.5692095E-2,4.5561385E-1,1.0699649E0,4.829282E-2,-5.4786522E-2,5.3765893E-2,-5.9555996E-2,5.5762004E-2,7.255004E-1,-6.944095E-2,5.2377176E-2],"categories":[],"categories_nodes":[],"categories_segments":[],"categories_sizes":[],"default_left":[0,0,0,0,0,0,0,0,0,0,0,0,0,0,0,0,0,0,0],"id":37,"left_children":[1,3,5,7,-1,9,-1,11,-1,13,15,-1,-1,-1,-1,-1,17,-1,-1],"loss_changes":[3.8244504E2,1.2825383E2,3.684398E1,3.3106174E0,0E0,6.2385406E0,0E0,8.8086195E0,0E0,2.3049976E1,2.2557526E0,0E0,0E0,0E0,0E0,0E0,1.894775E1,0E0,0E0],"parents":[2147483647,0,0,1,1,2,2,3,3,5,5,7,7,9,9,10,10,16,16],"right_children":[2,4,6,8,-1,10,-1,12,-1,14,16,-1,-1,-1,-1,-1,18,-1,-1],"split_conditions":[2.74049E-1,-4.997108E-2,1.3533981E-1,1.9185147E-1,-5.5807598E-2,3.0031595E-1,-5.4609776E-2,-9.8E7,5.5692095E-2,-2.8026057E-2,3.7793756E-2,4.829282E-2,-5.4786522E-2,5.3765893E-2,-5.9555996E-2,5.5762004E-2,4.0366593E-1,-6.944095E-2,5.2377176E-2],"split_indices":[11,10,10,11,0,11,0,1,0,10,10,0,0,0,0,0,11,0,0],"split_type":[0,0,0,0,0,0,0,0,0,0,0,0,0,0,0,0,0,0,0],"sum_hessian":[4.832766E2,2.5957947E2,2.2369713E2,3.3800964E1,2.2577852E2,2.1585202E2,7.8450994E0,7.3776884E0,2.6423275E1,2.0332102E1,1.9551991E2,5.2267838E0,2.1509047E0,1.5024889E1,5.307214E0,1.7082915E2,2.4690771E1,2.8258183E0,2.1864954E1],"tree_param":{"num_deleted":"0","num_feature":"12","num_nodes":"19","size_leaf_vector":"1"}},{"base_weights":[1.09387495E-1,-7.883763E-1,9.812098E-1,1.005848E0,-5.5391457E-2,1.0239512E0,-4.94817E-2,7.531081E-1,5.5202156E-2,3.452337E-1,1.0647568E0,5.0895464E-2,-4.522558E-2,5.2614283E-2,-5.6378778E-2,1.0866892E0,4.1920814E-1,5.5778272E-2,8.761912E-1,-4.4850063E-2,5.106286E-2,-5.965787E-2,5.5321034E-2],"categories":[],"categories_nodes":[],"categories_segments":[],"categories_sizes":[],"default_left":[0,0,0,0,0,0,0,0,0,0,0,0,0,0,0,0,0,0,0,0,0,0,0],"id":38,"left_children":[1,3,5,7,-1,9,-1,11,-1,13,15,-1,-1,-1,-1,17,19,-1,21,-1,-1,-1,-1],"loss_changes":[4.1045212E2,1.4923842E2,2.3419739E1,1.5087509E-1,0E0,6.856476E0,0E0,7.163083E0,0E0,1.8131966E1,3.0213013E0,0E0,0E0,0E0,0E0,4.623413E-1,8.600207E0,0E0,1.715384E1,0E0,0E0,0E0,0E0],"parents":[2147483647,0,0,1,1,2,2,3,3,5,5,7,7,9,9,10,10,15,15,16,16,18,18],"right_children":[2,4,6,8,-1,10,-1,12,-1,14,16,-1,-1,-1,-1,18,20,-1,22,-1,-1,-1,-1],"split_conditions":[2.74049E-1,-4.997108E-2,2.19112E-1,1.9185147E-1,-5.5391457E-2,3.0031595E-1,-4.94817E-2,-9.228363E-2,5.5202156E-2,-2.8026057E-2,1.3791284E-1,5.0895464E-2,-4.522558E-2,5.2614283E-2,-5.6378778E-2,3.323999E-2,2.316E9,5.5778272E-2,3.534892E-1,-4.4850063E-2,5.106286E-2,-5.965787E-2,5.5321034E-2],"split_indices":[11,10,10,11,0,11,0,10,0,10,10,0,0,0,0,10,1,0,11,0,0,0,0],"split_type":[0,0,0,0,0,0,0,0,0,0,0,0,0,0,0,0,0,0,0,0,0,0,0],"sum_hessian":[5.2242346E2,2.5742963E2,2.6499384E2,3.8582153E1,2.1884746E2,2.598392E2,5.154644E0,1.322148E1,2.5360674E1,1.527252E1,2.4456668E2,1.1733069E1,1.4884117E0,1.0511693E1,4.760827E0,2.3586966E2,8.697022E0,2.0363525E2,3.22344E1,2.5758164E0,6.1212063E0,2.808507E0,2.9425894E1],"tree_param":{"num_deleted":"0","num_feature":"12","num_nodes":"23","size_leaf_vector":"1"}},{"base_weights":[6.990563E-2,9.5174927E-1,-2.947807E-1,5.2648354E-2,8.598906E-1,-5.73447E-1,4.9429095E-1,5.393095E-1,9.8971784E-1,-7.4570715E-2,-9.4719815E-1,7.447735E-1,-5.4068465E-2,7.2410774E-1,-4.5412254E-2,2.5929043E-2,5.1072557E-2,-5.2267577E-2,3.2631037E-1,-5.358841E-2,-3.7337792E-1,9.931676E-1,1.6250227E-2,8.3265597E-1,-3.6708888E-2,-1.706979E-1,6.8588436E-1,3.752773E-2,-5.078701E-2,5.1041987E-2,2.6353693E-2,6.8802655E-1,-5.099919E-2,4.5560416E-2,2.3101194E-2,1.5234157E-2,-5.7630032E-2,7.1036615E-3,3.9401416E-2,-3.9870102E-2,5.130408E-2],"categories":[],"categories_nodes":[],"categories_segments":[],"categories_sizes":[],"default_left":[0,0,0,0,0,0,0,0,0,0,0,0,0,0,0,0,0,0,0,0,0,0,0,0,0,0,0,0,0,0,0,0,0,0,0,0,0,0,0,0,0],"id":39,"left_children":[1,3,5,-1,7,9,11,13,15,17,19,21,-1,23,-1,-1,-1,-1,25,-1,27,29,31,33,-1,35,37,-1,-1,-1,-1,39,-1,-1,-1,-1,-1,-1,-1,-1,-1],"loss_changes":[1.566623E2,4.1949463E-1,7.609362E1,0E0,2.8023834E0,4.752227E1,3.6530262E1,7.426126E0,3.0537033E-1,4.3309387E1,1.0024582E1,1.4224316E1,0E0,4.251148E0,0E0,0E0,0E0,0E0,1.4218158E1,0E0,2.0651024E1,2.1862793E-1,1.5337997E1,2.1571445E-1,0E0,1.6185667E1,2.4421654E0,0E0,0E0,0E0,0E0,7.523575E0,0E0,0E0,0E0,0E0,0E0,0E0,0E0,0E0,0E0],"parents":[2147483647,0,0,1,1,2,2,4,4,5,5,6,6,7,7,8,8,9,9,10,10,11,11,13,13,18,18,20,20,21,21,22,22,23,23,25,25,26,26,31,31],"right_children":[2,4,6,-1,8,10,12,14,16,18,20,22,-1,24,-1,-1,-1,-1,26,-1,28,30,32,34,-1,36,38,-1,-1,-1,-1,40,-1,-1,-1,-1,-1,-1,-1,-1,-1],"split_conditions":[0E0,6.6E-1,4.089098E-3,5.2648354E-2,-4.552786E-1,8.683633E-1,1.3791284E-1,7.93E8,2.6240495E-1,3.4E-1,2.27E0,6.6E-1,-5.4068465E-2,4.2816845E-1,-4.5412254E-2,2.5929043E-2,5.1072557E-2,-5.2267577E-2,5.695E9,-5.358841E-2,2.38E0,5.135005E-1,1.390513E9,-1.464198E0,-3.6708888E-2,1.705001E9,8.25E8,3.752773E-2,-5.078701E-2,5.1041987E-2,2.6353693E-2,1.122E9,-5.099919E-2,4.5560416E-2,2.3101194E-2,1.5234157E-2,-5.7630032E-2,7.1036615E-3,3.9401416E-2,-3.9870102E-2,5.130408E-2],"split_indices":[10,8,10,0,7,9,10,1,3,8,8,8,0,3,0,0,0,0,0,0,8,3,0,7,0,0,1,0,0,0,0,0,0,0,0,0,0,0,0,0,0],"split_type":[0,0,0,0,0,0,0,0,0,0,0,0,0,0,0,0,0,0,0,0,0,0,0,0,0,0,0,0,0,0,0,0,0,0,0,0,0,0,0,0,0],"sum_hessian":[4.8526718E2,1.414994E2,3.4376776E2,6.2342365E1,7.915703E1,2.5425063E2,8.951715E1,2.4302124E1,5.4854908E1,1.0941071E2,1.448399E2,7.769354E1,1.18236065E1,2.199408E1,2.3080447E0,4.5559235E0,5.0298985E1,3.1506462E1,7.790425E1,1.1829221E2,2.6547695E1,5.7668037E1,2.0025505E1,2.0869654E1,1.1244259E0,3.2922955E1,4.4981297E1,9.593554E0,1.6954142E1,5.3312653E1,4.355383E0,1.2353154E1,7.67235E0,1.6016556E1,4.853097E0,2.2647861E1,1.0275095E1,7.4908967E0,3.74904E1,2.0382411E0,1.0314914E1],"tree_param":{"num_deleted":"0","num_feature":"12","num_nodes":"41","size_leaf_vector":"1"}},{"base_weights":[7.993407E-2,-8.140075E-1,9.455479E-1,8.6947936E-1,-5.5019736E-2,9.8661894E-1,-4.7721382E-2,-4.265014E-2,9.5509833E-1,4.2052844E-1,1.0316299E0,6.7865086E-1,5.443874E-2,5.233841E-2,-5.743301E-2,5.5050142E-2,7.0158714E-1,5.304898E-2,-5.382204E-2,-6.002873E-2,1.0207357E0,3.241406E-2,5.5561226E-2],"categories":[],"categories_nodes":[],"categories_segments":[],"categories_sizes":[],"default_left":[0,0,0,0,0,0,0,0,0,0,0,0,0,0,0,0,0,0,0,0,0,0,0],"id":40,"left_children":[1,3,5,7,-1,9,-1,-1,11,13,15,17,-1,-1,-1,-1,19,-1,-1,-1,21,-1,-1],"loss_changes":[3.7116177E2,1.14746445E2,1.9954376E1,5.9574203E0,0E0,5.6555176E0,0E0,0E0,5.0616646E-1,2.0158976E1,4.2805176E0,1.0292343E1,0E0,0E0,0E0,0E0,2.6168623E1,0E0,0E0,0E0,4.836502E-1,0E0,0E0],"parents":[2147483647,0,0,1,1,2,2,3,3,5,5,8,8,9,9,10,10,11,11,16,16,20,20],"right_children":[2,4,6,8,-1,10,-1,-1,12,14,16,18,-1,-1,-1,-1,20,-1,-1,-1,22,-1,-1],"split_conditions":[2.74049E-1,-4.997108E-2,2.19112E-1,1.8266848E-1,-5.5019736E-2,3.0031595E-1,-4.7721382E-2,-4.265014E-2,1.9185147E-1,-2.8026057E-2,3.7793756E-2,-9.228363E-2,5.443874E-2,5.233841E-2,-5.743301E-2,5.5050142E-2,3.534892E-1,5.304898E-2,-5.382204E-2,-6.002873E-2,3.3180764E-1,3.241406E-2,5.5561226E-2],"split_indices":[11,10,10,11,0,11,0,0,11,10,10,10,0,0,0,0,11,0,0,0,3,0,0],"split_type":[0,0,0,0,0,0,0,0,0,0,0,0,0,0,0,0,0,0,0,0,0,0,0],"sum_hessian":[4.7766138E2,2.3501498E2,2.426464E2,3.3871292E1,2.0114369E2,2.3798273E2,4.6636677E0,1.1794922E0,3.2691803E1,1.8290546E1,2.1969218E2,1.2636308E1,2.0055494E1,1.3311178E1,4.979368E0,1.7960457E2,4.0087616E1,1.0700745E1,1.9355628E0,5.362818E0,3.47248E1,8.383259E0,2.634154E1],"tree_param":{"num_deleted":"0","num_feature":"12","num_nodes":"23","size_leaf_vector":"1"}},{"base_weights":[8.818069E-2,-7.7127033E-1,9.4783497E-1,-5.4429304E-2,-9.256324E-2,3.8256276E-1,9.951718E-1,3.0944842E-1,-5.136306E-2,-4.698254E-2,6.591622E-1,7.884283E-1,5.2747577E-2,-2.1929447E-1,7.8542656E-1,4.6265543E-2,1.2433211E-1,-1.0251454E-2,9.0272784E-1,-5.73874E-2,3.3853078E-1,4.822004E-2,2.9445177E-1,3.7583224E-2,-4.519717E-2,-4.758806E-2,4.191999E-2,9.645822E-1,-3.697836E-2,3.1907197E-2,-4.284154E-2,-4.0083125E-2,4.1607615E-2,2.4929864E-2,4.9587797E-2],"categories":[],"categories_nodes":[],"categories_segments":[],"categories_sizes":[],"default_left":[0,0,0,0,0,0,0,0,0,0,0,0,0,0,0,0,0,0,0,0,0,0,0,0,0,0,0,0,0,0,0,0,0,0,0],"id":41,"left_children":[1,3,5,-1,7,9,11,13,-1,-1,15,17,-1,19,21,-1,23,25,27,-1,29,-1,31,-1,-1,-1,-1,33,-1,-1,-1,-1,-1,-1,-1],"loss_changes":[3.3324814E2,4.8487E1,5.651947E0,0E0,2.7736115E1,7.5846915E0,1.7315979E0,1.3206543E1,0E0,0E0,2.2105908E0,4.6173477E0,0E0,1.3500803E1,2.1302052E0,0E0,4.926632E0,6.637424E0,5.200287E0,0E0,6.4875593E0,0E0,5.8413057E0,0E0,0E0,0E0,0E0,5.0014496E-2,0E0,0E0,0E0,0E0,0E0,0E0,0E0],"parents":[2147483647,0,0,1,1,2,2,4,4,5,5,6,6,7,7,10,10,11,11,13,13,14,14,16,16,17,17,18,18,20,20,22,22,27,27],"right_children":[2,4,6,-1,8,10,12,14,-1,-1,16,18,-1,20,22,-1,24,26,28,-1,30,-1,32,-1,-1,-1,-1,34,-1,-1,-1,-1,-1,-1,-1],"split_conditions":[2.74049E-1,1.58E0,3.0031595E-1,-5.4429304E-2,1.69E0,8.683633E-1,1.1E-1,2.014642E-1,-5.136306E-2,-4.698254E-2,3.939093E-3,3.343915E-1,5.2747577E-2,6.3559785E-2,2.487E8,4.6265543E-2,-1.881E9,2.962E9,1.009E9,-5.73874E-2,1.8291596E-1,4.822004E-2,2.704E9,3.7583224E-2,-4.519717E-2,-4.758806E-2,4.191999E-2,1.9107E7,-3.697836E-2,3.1907197E-2,-4.284154E-2,-4.0083125E-2,4.1607615E-2,2.4929864E-2,4.9587797E-2],"split_indices":[11,8,11,0,8,9,8,11,0,0,2,11,0,2,1,0,1,1,1,0,11,0,1,0,0,0,0,1,0,0,0,0,0,0,0],"split_type":[0,0,0,0,0,0,0,0,0,0,0,0,0,0,0,0,0,0,0,0,0,0,0,0,0,0,0,0,0,0,0,0,0,0,0],"sum_hessian":[4.4905853E2,2.2460722E2,2.2445131E2,1.5263972E2,7.196751E1,1.8045282E1,2.0640602E2,5.0791233E1,2.1176273E1,2.7071733E0,1.5338108E1,4.947825E1,1.5692778E2,2.4317396E1,2.6473835E1,9.754068E0,5.584039E0,6.308347E0,4.3169903E1,8.729813E0,1.5587584E1,1.8694798E1,7.7790384E0,3.6352458E0,1.9487933E0,2.9329636E0,3.3753836E0,4.200068E1,1.1692243E0,1.2836348E1,2.751236E0,2.3985775E0,5.380461E0,3.3804264E0,3.862025E1],"tree_param":{"num_deleted":"0","num_feature":"12","num_nodes":"35","size_leaf_vector":"1"}},{"base_weights":[6.7895845E-2,9.2216426E-1,-2.66808E-1,9.3793446E-1,1.5702015E-2,-5.528666E-1,4.8850584E-1,5.2217018E-2,8.091864E-1,-6.072153E-2,-9.339621E-1,7.107754E-1,-5.248292E-2,4.871548E-2,5.060822E-1,-5.1421184E-2,3.086017E-1,-5.2930463E-2,-3.4220666E-1,7.8241694E-1,-4.1942414E-2,4.807409E-2,-4.960279E-2,-5.1700722E-2,4.5777956E-1,3.7819874E-2,-4.978896E-2,9.29418E-1,4.4122735E-1,1.0148123E-2,4.0023364E-2,4.8414543E-2,2.336517E-2,4.4320785E-2,-4.945481E-2],"categories":[],"categories_nodes":[],"categories_segments":[],"categories_sizes":[],"default_left":[0,0,0,0,0,0,0,0,0,0,0,0,0,0,0,0,0,0,0,0,0,0,0,0,0,0,0,0,0,0,0,0,0,0,0],"id":42,"left_children":[1,3,5,7,-1,9,11,-1,13,15,17,19,-1,-1,21,-1,23,-1,25,27,-1,-1,-1,-1,29,-1,-1,31,33,-1,-1,-1,-1,-1,-1],"loss_changes":[1.24779236E2,8.8344574E-1,6.805142E1,7.882538E-1,0E0,4.2706528E1,3.0389389E1,0E0,2.4292831E0,3.626209E1,9.110847E0,9.132954E0,0E0,0E0,1.6422003E1,0E0,1.5206991E1,0E0,1.7858765E1,3.2761993E0,0E0,0E0,0E0,0E0,5.6793404E0,0E0,0E0,4.540062E-1,1.6181301E1,0E0,0E0,0E0,0E0,0E0,0E0],"parents":[2147483647,0,0,1,1,2,2,3,3,5,5,6,6,8,8,9,9,10,10,11,11,14,14,16,16,18,18,19,19,24,24,27,27,28,28],"right_children":[2,4,6,8,-1,10,12,-1,14,16,18,20,-1,-1,22,-1,24,-1,26,28,-1,-1,-1,-1,30,-1,-1,32,34,-1,-1,-1,-1,-1,-1],"split_conditions":[0E0,1.154093E0,4.089098E-3,-7.480576E-2,1.5702015E-2,8.683633E-1,1.3791284E-1,5.2217018E-2,9.288609E-3,3.4E-1,2.27E0,-1.8526827E-1,-5.248292E-2,4.871548E-2,6.6E-1,-5.1421184E-2,1.488385E9,-5.2930463E-2,2.38E0,6.6E-1,-4.1942414E-2,4.807409E-2,-4.960279E-2,-5.1700722E-2,1.06306806E-1,3.7819874E-2,-4.978896E-2,1.9073321E-1,3.323999E-2,1.0148123E-2,4.0023364E-2,4.8414543E-2,2.336517E-2,4.4320785E-2,-4.945481E-2],"split_indices":[10,7,10,10,0,9,10,0,2,8,8,7,0,0,8,0,0,0,8,8,0,0,0,0,2,0,0,2,10,0,0,0,0,0,0],"split_type":[0,0,0,0,0,0,0,0,0,0,0,0,0,0,0,0,0,0,0,0,0,0,0,0,0,0,0,0,0,0,0,0,0,0,0],"sum_hessian":[4.3454208E2,1.2183248E2,3.127096E2,1.1822429E2,3.6081946E0,2.2700461E2,8.5704994E1,6.0834835E1,5.738945E1,9.9574234E1,1.2743037E2,7.535401E1,1.0350983E1,3.5717224E1,2.1672228E1,2.7012188E1,7.256205E1,1.0460705E2,2.282332E1,7.249743E1,2.8565788E0,1.689481E1,4.777419E0,6.6629934E0,6.5899055E1,8.454553E0,1.4368768E1,4.9462517E1,2.303491E1,3.8708385E1,2.719067E1,4.4614246E1,4.8482738E0,1.7857143E1,5.177768E0],"tree_param":{"num_deleted":"0","num_feature":"12","num_nodes":"35","size_leaf_vector":"1"}},{"base_weights":[8.141128E-2,-8.468295E-1,9.432725E-1,8.0453825E-1,-5.4372527E-2,9.876476E-1,-4.701074E-2,-4.1600764E-2,9.1303325E-1,4.4138476E-1,1.0298553E0,4.7253728E-1,5.2866437E-2,5.1110037E-2,-5.493641E-2,1.0520146E0,4.5778158E-1,4.9012188E-2,-5.036945E-2,5.4376792E-2,8.6052287E-1,-4.3596547E-2,5.0384194E-2,-5.1690556E-2,5.226692E-2],"categories":[],"categories_nodes":[],"categories_segments":[],"categories_sizes":[],"default_left":[0,0,0,0,0,0,0,0,0,0,0,0,0,0,0,0,0,0,0,0,0,0,0,0,0],"id":43,"left_children":[1,3,5,7,-1,9,-1,-1,11,13,15,17,-1,-1,-1,19,21,-1,-1,-1,23,-1,-1,-1,-1],"loss_changes":[3.3497827E2,8.099754E1,1.9071823E1,5.415081E0,0E0,4.446472E0,0E0,0E0,1.0935955E0,1.6326685E1,2.0102997E0,6.993143E0,0E0,0E0,0E0,3.4613037E-1,7.533125E0,0E0,0E0,0E0,1.3082573E1,0E0,0E0,0E0,0E0],"parents":[2147483647,0,0,1,1,2,2,3,3,5,5,8,8,9,9,10,10,11,11,15,15,16,16,20,20],"right_children":[2,4,6,8,-1,10,-1,-1,12,14,16,18,-1,-1,-1,20,22,-1,-1,-1,24,-1,-1,-1,-1],"split_conditions":[2.74049E-1,-4.997108E-2,2.19112E-1,1.8266848E-1,-5.4372527E-2,3.0031595E-1,-4.701074E-2,-4.1600764E-2,1.8612817E-1,-2.8026057E-2,1.3791284E-1,-9.228363E-2,5.2866437E-2,5.1110037E-2,-5.493641E-2,3.7793756E-2,4.00719E-1,4.9012188E-2,-5.036945E-2,5.4376792E-2,3.4075862E-1,-4.3596547E-2,5.0384194E-2,-5.1690556E-2,5.226692E-2],"split_indices":[11,10,10,11,0,11,0,0,11,10,10,10,0,0,0,10,3,0,0,0,11,0,0,0,0],"split_type":[0,0,0,0,0,0,0,0,0,0,0,0,0,0,0,0,0,0,0,0,0,0,0,0,0],"sum_hessian":[4.1671667E2,2.006405E2,2.1607617E2,2.5219181E1,1.7542133E2,2.1156726E2,4.508912E0,1.1533402E0,2.406584E1,1.5996297E1,1.9557097E2,6.992962E0,1.7072878E1,1.1859905E1,4.1363916E0,1.8747034E2,8.1006365E0,5.458126E0,1.5348358E0,1.5418925E2,3.3281086E1,2.1986046E0,5.9020314E0,2.550017E0,3.0731068E1],"tree_param":{"num_deleted":"0","num_feature":"12","num_nodes":"25","size_leaf_vector":"1"}},{"base_weights":[8.641043E-2,-8.0772644E-1,9.3894863E-1,8.329677E-1,-5.4154284E-2,9.8181987E-1,-4.5919072E-2,-3.9933376E-2,9.276381E-1,3.2053152E-1,1.0225083E0,5.1519882E-2,5.173726E-1,4.966017E-2,-5.202247E-2,5.356049E-2,5.378438E-1,-4.6970747E-2,4.8415985E-2,-6.2320527E-2,5.211484E-2],"categories":[],"categories_nodes":[],"categories_segments":[],"categories_sizes":[],"default_left":[0,0,0,0,0,0,0,0,0,0,0,0,0,0,0,0,0,0,0,0,0],"id":44,"left_children":[1,3,5,7,-1,9,-1,-1,11,13,15,-1,17,-1,-1,-1,19,-1,-1,-1,-1],"loss_changes":[3.0719534E2,8.978963E1,1.7324402E1,5.1957855E0,0E0,5.1095123E0,0E0,0E0,6.3560295E-1,1.3090035E1,3.906433E0,0E0,5.8768125E0,0E0,0E0,0E0,1.8714546E1,0E0,0E0,0E0,0E0],"parents":[2147483647,0,0,1,1,2,2,3,3,5,5,8,8,9,9,10,10,12,12,16,16],"right_children":[2,4,6,8,-1,10,-1,-1,12,14,16,-1,18,-1,-1,-1,20,-1,-1,-1,-1],"split_conditions":[2.74049E-1,-4.997108E-2,2.19112E-1,1.8266848E-1,-5.4154284E-2,2.9180714E-1,-4.5919072E-2,-3.9933376E-2,2.487E8,-2.8026057E-2,6.7345895E-2,5.1519882E-2,3.287177E-1,4.966017E-2,-5.202247E-2,5.356049E-2,5.404619E-1,-4.6970747E-2,4.8415985E-2,-6.2320527E-2,5.211484E-2],"split_indices":[11,10,10,11,0,11,0,0,1,10,10,0,7,0,0,0,11,0,0,0,0],"split_type":[0,0,0,0,0,0,0,0,0,0,0,0,0,0,0,0,0,0,0,0,0],"sum_hessian":[4.0099738E2,1.9574928E2,2.052481E2,2.7840435E1,1.6790884E2,2.0107816E2,4.169947E0,1.1189604E0,2.6721476E1,1.2169574E1,1.8890858E2,2.0160355E1,6.561121E0,8.325087E0,3.8444872E0,1.7055966E2,1.834891E1,1.294861E0,5.26626E0,3.7200928E0,1.4628817E1],"tree_param":{"num_deleted":"0","num_feature":"12","num_nodes":"21","size_leaf_vector":"1"}},{"base_weights":[2.8476076E-2,-8.123593E-1,9.1152E-1,7.9335827E-1,-5.395055E-2,9.6272826E-1,-4.6340197E-2,-4.293217E-2,9.092638E-1,3.8326886E-1,1.0152074E0,2.9338503E-1,5.28104E-2,5.0298866E-2,-5.365607E-2,5.3488176E-2,5.830495E-1,4.384411E-2,-4.6229683E-2,-5.939136E-2,5.1585108E-2],"categories":[],"categories_nodes":[],"categories_segments":[],"categories_sizes":[],"default_left":[0,0,0,0,0,0,0,0,0,0,0,0,0,0,0,0,0,0,0,0,0],"id":45,"left_children":[1,3,5,7,-1,9,-1,-1,11,13,15,17,-1,-1,-1,-1,19,-1,-1,-1,-1],"loss_changes":[2.7589368E2,8.2359955E1,1.7952225E1,6.081856E0,0E0,4.9873962E0,0E0,0E0,2.0753498E0,1.5852201E1,3.1842804E0,5.402967E0,0E0,0E0,0E0,0E0,1.735575E1,0E0,0E0,0E0,0E0],"parents":[2147483647,0,0,1,1,2,2,3,3,5,5,8,8,9,9,10,10,11,11,16,16],"right_children":[2,4,6,8,-1,10,-1,-1,12,14,16,18,-1,-1,-1,-1,20,-1,-1,-1,-1],"split_conditions":[2.74049E-1,-4.997108E-2,2.19112E-1,1.8266848E-1,-5.395055E-2,3.0031595E-1,-4.6340197E-2,-4.293217E-2,1.9185147E-1,-2.8026057E-2,6.7345895E-2,-9.8E7,5.28104E-2,5.0298866E-2,-5.365607E-2,5.3488176E-2,4.0366593E-1,4.384411E-2,-4.6229683E-2,-5.939136E-2,5.1585108E-2],"split_indices":[11,10,10,11,0,11,0,0,11,10,10,1,0,0,0,0,11,0,0,0,0],"split_type":[0,0,0,0,0,0,0,0,0,0,0,0,0,0,0,0,0,0,0,0,0],"sum_hessian":[3.695794E2,1.8935522E2,1.802242E2,2.6685547E1,1.6266968E2,1.7580333E2,4.4208646E0,1.3294055E0,2.5356142E1,1.5289073E1,1.6051425E2,5.4616427E0,1.9894499E1,1.0926498E1,4.362574E0,1.4121207E2,1.9302189E1,3.881962E0,1.5796809E0,3.5686867E0,1.5733502E1],"tree_param":{"num_deleted":"0","num_feature":"12","num_nodes":"21","size_leaf_vector":"1"}},{"base_weights":[-1.9965429E-2,-8.1766593E-1,9.3707275E-1,6.2264633E-1,-5.3895917E-2,1.0212625E0,-4.9655233E-2,-2.586908E-1,4.9368795E-2,5.3598028E-2,6.6666996E-1,4.20974E-2,-5.827592E-2,-6.2325742E-2,5.0290998E-2],"categories":[],"categories_nodes":[],"categories_segments":[],"categories_sizes":[],"default_left":[0,0,0,0,0,0,0,0,0,0,0,0,0,0,0],"id":46,"left_children":[1,3,5,7,-1,9,-1,11,-1,-1,13,-1,-1,-1,-1],"loss_changes":[2.6183456E2,7.078357E1,2.635202E1,9.660669E0,0E0,1.980133E0,0E0,1.0320024E1,0E0,0E0,1.5136701E1,0E0,0E0,0E0,0E0],"parents":[2147483647,0,0,1,1,2,2,3,3,5,5,7,7,10,10],"right_children":[2,4,6,8,-1,10,-1,12,-1,-1,14,-1,-1,-1,-1],"split_conditions":[3.0031595E-1,-2.8026057E-2,1.3533981E-1,1.9860621E-1,-5.3895917E-2,3.0951936E-2,-4.9655233E-2,-9.8E7,4.9368795E-2,5.3598028E-2,4.0366593E-1,4.20974E-2,-5.827592E-2,-6.2325742E-2,5.0290998E-2],"split_indices":[11,10,10,11,0,10,0,1,0,0,11,0,0,0,0],"split_type":[0,0,0,0,0,0,0,0,0,0,0,0,0,0,0],"sum_hessian":[3.4096768E2,1.8604391E2,1.5492375E2,2.8258835E1,1.5778508E2,1.489E2,6.0237675E0,8.356592E0,1.9902243E1,1.28504E2,2.0395992E1,3.807221E0,4.5493712E0,2.6683137E0,1.7727678E1],"tree_param":{"num_deleted":"0","num_feature":"12","num_nodes":"15","size_leaf_vector":"1"}},{"base_weights":[1.1233887E-1,-7.9806197E-1,9.294681E-1,7.836919E-1,-5.345775E-2,9.6260124E-1,-4.2127334E-2,-7.34168E-3,5.2091446E-2,3.7817538E-1,1.0079547E0,3.9247748E-2,-5.4205526E-2,4.9516615E-2,-5.2053567E-2,5.3586215E-2,6.592805E-1,-5.4480147E-2,9.9676096E-1,5.2133895E-2,2.318286E-2],"categories":[],"categories_nodes":[],"categories_segments":[],"categories_sizes":[],"default_left":[0,0,0,0,0,0,0,0,0,0,0,0,0,0,0,0,0,0,0,0,0],"id":47,"left_children":[1,3,5,7,-1,9,-1,11,-1,13,15,-1,-1,-1,-1,-1,17,-1,19,-1,-1],"loss_changes":[2.6889987E2,7.41808E1,1.1991501E1,5.2355204E0,0E0,4.585968E0,0E0,7.0720882E0,0E0,1.4146437E1,3.1467896E0,0E0,0E0,0E0,0E0,0E0,1.8434536E1,0E0,1.3246536E-1,0E0,0E0],"parents":[2147483647,0,0,1,1,2,2,3,3,5,5,7,7,9,9,10,10,16,16,18,18],"right_children":[2,4,6,8,-1,10,-1,12,-1,14,16,-1,-1,-1,-1,-1,18,-1,20,-1,-1],"split_conditions":[2.74049E-1,-4.997108E-2,2.19112E-1,1.9185147E-1,-5.345775E-2,3.0031595E-1,-4.2127334E-2,6.2039472E-2,5.2091446E-2,-2.8026057E-2,3.7793756E-2,3.9247748E-2,-5.4205526E-2,4.9516615E-2,-5.2053567E-2,5.3586215E-2,4.0366593E-1,-5.4480147E-2,2.7266437E10,5.2133895E-2,2.318286E-2],"split_indices":[11,10,10,11,0,11,0,3,0,10,10,0,0,0,0,0,11,0,0,0,0],"split_type":[0,0,0,0,0,0,0,0,0,0,0,0,0,0,0,0,0,0,0,0,0],"sum_hessian":[3.594687E2,1.7004129E2,1.894274E2,2.4602362E1,1.4543893E2,1.8639888E2,3.0285134E0,6.2921834E0,1.8310179E1,1.4096E1,1.7230289E2,3.781056E0,2.5111277E0,1.0059358E1,4.036642E0,1.4390938E2,2.839351E1,4.2323074E0,2.4161203E1,2.1365131E1,2.7960708E0],"tree_param":{"num_deleted":"0","num_feature":"12","num_nodes":"21","size_leaf_vector":"1"}},{"base_weights":[9.829351E-2,1.782497E-1,-5.0089043E-2,-4.930297E-2,2.4532251E-1,2.9635257E-1,-4.8186984E-2,5.3266607E-2,5.2413833E-1,2.8092802E-1,-5.037084E-2,4.6932664E-2,3.971902E-1,2.2269482E-2,-2.0845925E-2,-4.9202118E-2,3.0005505E-2],"categories":[],"categories_nodes":[],"categories_segments":[],"categories_sizes":[],"default_left":[0,0,0,0,0,0,0,0,0,0,0,0,0,0,0,0,0],"id":48,"left_children":[1,3,-1,-1,5,7,-1,9,11,13,-1,-1,15,-1,-1,-1,-1],"loss_changes":[3.0268978E1,2.5213825E1,0E0,0E0,1.898968E1,1.6120668E1,0E0,3.461986E1,7.5439034E0,1.3711229E1,0E0,0E0,3.3357025E1,0E0,0E0,0E0,0E0],"parents":[2147483647,0,0,1,1,4,4,5,5,7,7,8,8,9,9,12,12],"right_children":[2,4,-1,-1,6,8,-1,10,12,14,-1,-1,16,-1,-1,-1,-1],"split_conditions":[2.4411962E0,1.982013E-1,-5.0089043E-2,-4.930297E-2,2.38E0,6.5E-1,-4.8186984E-2,1.3204191E0,6.6E-1,-6.9960153E-1,-5.037084E-2,4.6932664E-2,1.58E0,2.2269482E-2,-2.0845925E-2,-4.9202118E-2,3.0005505E-2],"split_indices":[9,9,0,0,8,8,0,9,8,7,0,0,8,0,0,0,0],"split_type":[0,0,0,0,0,0,0,0,0,0,0,0,0,0,0,0,0],"sum_hessian":[3.4110068E2,3.1876965E2,2.2331018E1,1.661693E1,3.021527E2,2.9064075E2,1.1511986E1,1.4119531E2,1.4944543E2,1.1685014E2,2.4345167E1,3.3538975E1,1.15906456E2,9.485696E1,2.1993187E1,1.4353799E1,1.0155266E2],"tree_param":{"num_deleted":"0","num_feature":"12","num_nodes":"17","size_leaf_vector":"1"}},{"base_weights":[7.537225E-2,-7.62393E-1,8.8727033E-1,8.11603E-1,-5.3314723E-2,9.398366E-1,-4.5542903E-2,-4.0733524E-2,9.222818E-1,1.6040984E-1,9.847788E-1,5.0224133E-2,4.7186804E-1,4.5707874E-2,-5.014031E-2,5.2578487E-2,6.616354E-1,-3.543222E-2,4.3733995E-2,-5.806529E-2,9.876986E-1,5.1677626E-2,2.077538E-2],"categories":[],"categories_nodes":[],"categories_segments":[],"categories_sizes":[],"default_left":[0,0,0,0,0,0,0,0,0,0,0,0,0,0,0,0,0,0,0,0,0,0,0],"id":49,"left_children":[1,3,5,7,-1,9,-1,-1,11,13,15,-1,17,-1,-1,-1,19,-1,-1,-1,21,-1,-1],"loss_changes":[2.284302E2,7.9951385E1,1.6972733E1,5.669508E0,0E0,5.6624146E0,0E0,0E0,4.9057388E-1,9.9063015E0,2.6907349E0,0E0,3.4285975E0,0E0,0E0,0E0,1.8724834E1,0E0,0E0,0E0,2.4290848E-1,0E0,0E0],"parents":[2147483647,0,0,1,1,2,2,3,3,5,5,8,8,9,9,10,10,12,12,16,16,20,20],"right_children":[2,4,6,8,-1,10,-1,-1,12,14,16,-1,18,-1,-1,-1,20,-1,-1,-1,22,-1,-1],"split_conditions":[2.74049E-1,-4.997108E-2,2.19112E-1,1.8266848E-1,-5.3314723E-2,3.0031595E-1,-4.5542903E-2,-4.0733524E-2,-7.480576E-2,-3.75125E-2,6.7345895E-2,5.0224133E-2,1.9185147E-1,4.5707874E-2,-5.014031E-2,5.2578487E-2,4.0366593E-1,-3.543222E-2,4.3733995E-2,-5.806529E-2,2.954E10,5.1677626E-2,2.077538E-2],"split_indices":[11,10,10,11,0,11,0,0,10,10,10,0,11,0,0,0,11,0,0,0,0,0,0],"split_type":[0,0,0,0,0,0,0,0,0,0,0,0,0,0,0,0,0,0,0,0,0,0,0],"sum_hessian":[3.3384338E2,1.6433432E2,1.6950906E2,2.6323984E1,1.3801033E2,1.6515817E2,4.3508906E0,1.2720646E0,2.505192E1,9.25305E0,1.5590512E2,2.0145262E1,4.906658E0,5.744686E0,3.5083637E0,1.2733246E2,2.8572657E1,1.0551393E0,3.8515189E0,3.9465954E0,2.4626062E1,2.2052525E1,2.5735364E0],"tree_param":{"num_deleted":"0","num_feature":"12","num_nodes":"23","size_leaf_vector":"1"}},{"base_weights":[7.028738E-2,-7.282851E-1,8.7758625E-1,